svm_type epsilon_svr
kernel_type rbf
gamma 0.05
nr_class 2
total_sv 774
rho -153.591
probA 5.71401
SV
-1024 1:-0.596978 2:-0.136393 3:-0.248933 4:0.432246 5:-0.769052 6:-0.120449 7:-0.265569 8:0.386313 9:-0.746024 10:-0.207071 11:-0.165391 12:-0.0705024 13:-0.592856 14:-0.583769 15:-0.171144 16:-0.0659713 17:-0.589443 18:-0.594489 19:0.674185 20:0.198835 21:0.570048 22:0.368743 23:-0.422326 24:0.232054 25:0.585366 26:0.347393 27:-0.388922 28:0.112603 29:0.677503 30:-0.274459 31:-0.238119 32:-0.168099 33:0.713911 34:-0.266084 35:-0.241827 36:-0.191255 
-1024 1:-0.747257 2:-0.461042 3:-0.509246 4:0.460519 5:-0.924187 6:-0.452938 7:-0.526127 8:0.0919585 9:-0.866725 10:-0.648671 11:-0.427259 12:0.20952 13:-0.849245 14:-0.788123 15:-0.43515 16:0.193888 17:-0.845022 18:-0.798055 19:0.186538 20:-0.121979 21:0.207729 22:0.580158 23:-0.747775 24:-0.0700023 25:0.265854 26:0.0177099 27:-0.568242 28:-0.396922 29:0.336801 30:0.0719453 31:-0.593952 32:-0.429034 33:0.351706 34:-0.10717 35:-0.548696 36:-0.488075 
1024 1:-0.75533 2:-0.574436 3:-0.55192 4:0.379678 5:-0.952804 6:-0.602946 7:-0.57194 8:0.110236 9:-0.908983 10:-0.720716 11:-0.430322 12:0.250062 13:-0.905263 14:-0.852556 15:-0.436685 16:0.304263 17:-0.909137 18:-0.849826 19:0.177945 20:-0.228712 21:0.123188 22:0.453352 23:-0.773433 24:-0.222516 25:0.097561 26:0.0502198 27:-0.640366 28:-0.459302 29:0.328999 30:-0.21165 31:-0.643798 32:-0.644918 33:0.341207 34:-0.0187527 35:-0.678533 36:-0.610199 
1024 1:-0.829642 2:-0.727723 3:-0.694168 4:0.300593 5:-0.987107 6:-0.759054 7:-0.673586 8:0.319375 9:-0.985322 10:-0.804744 11:-0.525268 12:0.498311 13:-0.97631 14:-0.904066 15:-0.537989 16:0.519832 17:-0.976596 18:-0.90404 19:-0.35768 20:-0.454139 21:-0.241546 22:0.135183 23:-0.81523 24:-0.509566 25:-0.270732 26:0.17582 27:-0.802685 28:-0.572738 29:-0.0871261 30:-0.0954986 31:-0.767057 32:-0.754333 33:-0.0892388 34:-0.0533 35:-0.766998 36:-0.74817 
1024 1:-0.768371 2:-0.615355 3:-0.571835 4:0.359354 5:-0.963103 6:-0.650212 7:-0.560487 8:0.196013 9:-0.944032 10:-0.756069 11:-0.421133 12:0.364459 13:-0.936134 14:-0.867119 15:-0.430545 16:0.412933 17:-0.938875 18:-0.864475 19:0.155747 20:-0.25506 21:0.120773 22:0.522433 23:-0.813914 24:-0.243393 25:0.0902439 26:0.0644308 27:-0.667057 28:-0.483603 29:0.331599 30:-0.146039 31:-0.679563 32:-0.658515 33:0.328084 34:0.0317611 35:-0.708745 36:-0.625992 
1024 1:-0.810391 2:-0.57626 3:-0.657183 4:0.261421 5:-0.921241 6:-0.563124 7:-0.677881 8:0.00415966 9:-0.86586 10:-0.688806 11:-0.58193 12:-0.0277791 13:-0.841178 14:-0.858677 15:-0.599386 16:0.0029521 17:-0.838583 18:-0.857231 19:-0.205156 20:-0.321353 21:-0.108696 22:0.175894 23:-0.733446 24:-0.358174 25:-0.12439 26:0.0315904 27:-0.665625 28:-0.496684 29:0.0923277 30:-0.333268 31:-0.636462 32:-0.700359 33:0.0839895 34:-0.262004 35:-0.638538 36:-0.686336 
-1024 1:-0.734424 2:-0.250089 3:-0.493599 4:0.380424 5:-0.798892 6:-0.182248 7:-0.507516 8:-0.093333 9:-0.655325 10:-0.411752 11:-0.41807 12:-0.082255 13:-0.65914 14:-0.672382 15:-0.427475 16:-0.140512 17:-0.637126 18:-0.690139 19:0.324024 20:0.117295 21:0.304348 22:0.349709 23:-0.469648 24:0.169654 25:0.360976 26:-0.0647326 27:-0.279633 28:-0.118976 29:0.464239 30:-0.270311 31:-0.309294 32:-0.261785 33:0.47769 34:-0.284746 35:-0.289335 36:-0.270718 
-1024 1:-0.805837 2:-0.535153 3:-0.648649 4:0.123269 5:-0.894824 6:-0.608582 7:-0.653543 8:0.275803 9:-0.901803 10:-0.579442 11:-0.574273 12:0.180232 13:-0.863561 14:-0.816319 15:-0.590177 16:0.224663 17:-0.866081 18:-0.813879 19:-0.0998926 20:-0.166122 21:0.00966184 22:0.0638426 23:-0.623891 24:-0.300773 25:0.0268293 26:0.344512 27:-0.652604 28:-0.232536 29:0.123537 30:-0.117966 31:-0.56599 32:-0.504232 33:0.120735 34:-0.0539333 35:-0.573104 36:-0.493757 
-1024 1:-0.816187 2:-0.678546 3:-0.715505 4:0.0519929 5:-0.932699 6:-0.738566 7:-0.710809 8:0.143427 9:-0.94403 10:-0.763813 11:-0.666156 12:0.0452979 13:-0.895953 14:-0.899745 15:-0.673062 16:0.272102 17:-0.925128 18:-0.878477 19:-0.32116 20:-0.450506 21:-0.285024 22:0.0468344 23:-0.783826 24:-0.521907 25:-0.202439 26:0.0180906 27:-0.756397 28:-0.621744 29:-0.118336 30:-0.221339 31:-0.725213 32:-0.759452 33:-0.125984 34:-0.0461898 35:-0.754648 36:-0.730097 
293.0204221462269 1:-0.749741 2:-0.439988 3:-0.556188 4:0.0252192 5:-0.812375 6:-0.526537 7:-0.559055 8:0.371293 9:-0.862845 10:-0.430926 11:-0.41807 12:-0.230489 13:-0.750967 14:-0.823962 15:-0.42594 16:-0.0413622 17:-0.781464 18:-0.804828 19:0.26101 20:-0.11766 21:0.164251 22:-0.134886 23:-0.462187 24:-0.267004 25:0.121951 26:0.359126 27:-0.546943 28:-0.067063 29:0.503251 30:-0.785227 31:-0.403 32:-0.647252 33:0.464567 34:-0.397597 35:-0.479187 36:-0.559999 
-81.05982282172033 1:-0.796315 2:-0.541512 3:-0.641536 4:0.175849 5:-0.912914 6:-0.614034 7:-0.64209 8:0.142641 9:-0.873705 10:-0.614033 11:-0.566616 12:0.21242 13:-0.869745 14:-0.81336 15:-0.587107 16:0.0481603 17:-0.830723 18:-0.833064 19:0.0497673 20:-0.198157 21:0.0797101 22:-0.131464 23:-0.58646 24:-0.414507 25:0.0609756 26:0.262027 27:-0.635941 28:-0.282529 29:0.204161 30:-0.234044 31:-0.568953 32:-0.569204 33:0.167979 34:-0.0960703 35:-0.579255 36:-0.525175 
-341.232595444367 1:-0.636928 2:-0.274393 3:-0.317212 4:0.249261 5:-0.813302 6:-0.377429 7:-0.337151 8:0.22594 9:-0.78532 10:-0.409952 11:-0.333844 12:0.04961 13:-0.658807 14:-0.610941 15:-0.32924 16:0.0457002 17:-0.66755 18:-0.638154 19:0.699964 20:0.0321281 21:0.502415 22:0.162753 23:-0.504129 24:-0.0807704 25:0.519512 26:0.123401 27:-0.44279 28:-0.160417 29:0.521456 30:0.109039 31:-0.42496 32:-0.161059 33:0.582677 34:-0.335685 35:-0.317045 36:-0.332893 
1024 1:-0.793832 2:-0.458186 3:-0.600284 4:0.452282 5:-0.915048 6:-0.39573 7:-0.623479 8:-0.137632 9:-0.775583 10:-0.633513 11:-0.534456 12:0.0189013 13:-0.793158 14:-0.787537 15:-0.544129 16:-0.039099 17:-0.772968 18:-0.799246 19:0.144289 20:-0.0457238 21:0.144928 22:0.466513 23:-0.638423 24:0.035274 25:0.187805 26:-0.156407 27:-0.36856 28:-0.297495 29:0.297789 30:-0.189721 31:-0.465308 32:-0.41268 33:0.301837 34:-0.214268 35:-0.443346 36:-0.420766 
1024 1:-0.803353 2:-0.559561 3:-0.640114 4:-0.0421157 5:-0.867813 6:-0.676259 7:-0.646385 8:0.357456 9:-0.923582 10:-0.579102 11:-0.595712 12:-0.0416031 13:-0.817108 14:-0.837715 15:-0.607061 16:0.161423 17:-0.84908 18:-0.814895 19:-0.361976 20:-0.35185 21:-0.217391 22:-0.117658 23:-0.673764 24:-0.500819 25:-0.192683 26:0.28149 27:-0.76692 28:-0.442636 29:-0.146944 30:-0.269736 31:-0.620327 32:-0.664078 33:-0.131234 34:-0.14558 35:-0.645922 36:-0.645527 
-1024 1:-0.724695 2:-0.169593 3:-0.355619 4:0.834719 5:-0.848735 6:0.109881 7:-0.325698 8:-0.465634 9:-0.545254 10:-0.525911 11:-0.320061 12:-0.434137 13:-0.465318 14:-0.621675 15:-0.330775 16:-0.30282 17:-0.488462 18:-0.604985 19:-0.116362 20:0.00127759 21:0.164251 22:0.810169 23:-0.706498 24:0.262485 25:0.22439 26:-0.718417 27:-0.124745 28:-0.490655 29:0.235371 30:-0.787519 31:-0.201945 32:-0.476892 33:0.257218 34:-0.539143 35:-0.277793 36:-0.433082 
-1024 1:-0.76154 2:-0.527557 3:-0.567568 4:0.1861 5:-0.912167 6:-0.620651 7:-0.570508 8:0.332928 9:-0.923101 10:-0.61468 11:-0.470138 12:0.182769 13:-0.86864 14:-0.822837 15:-0.482732 16:0.205934 17:-0.868633 18:-0.824622 19:0.112782 20:-0.248223 21:0.0966184 22:0.131833 23:-0.730849 24:-0.411463 25:0.104878 26:0.254713 27:-0.723495 28:-0.423766 29:0.172952 30:-0.00315065 31:-0.657283 32:-0.561003 33:0.165354 34:-0.033507 35:-0.641024 36:-0.570636 
-1024 1:-0.792797 2:-0.474974 3:-0.627312 4:0.0627574 5:-0.849129 6:-0.559513 7:-0.629205 8:0.20607 9:-0.853573 10:-0.524762 11:-0.558959 12:0.0463802 13:-0.801044 14:-0.787095 15:-0.576362 16:0.110646 17:-0.806473 18:-0.781334 19:-0.00465449 20:-0.116872 21:0.0966184 22:0.0687517 23:-0.596405 24:-0.264841 25:0.1 26:0.33551 27:-0.613495 28:-0.188009 29:0.185956 30:-0.144183 31:-0.517464 32:-0.455305 33:0.19685 34:-0.0633684 35:-0.528755 36:-0.439576 
1024 1:-0.666115 2:-0.251637 3:-0.325747 4:0.930988 5:-0.907906 6:-0.0140876 7:-0.305655 8:-0.533973 9:-0.6085 10:-0.644671 11:-0.232772 12:-0.715268 13:-0.528722 14:-0.778765 15:-0.240215 16:-0.422372 17:-0.581032 18:-0.736955 19:0.378446 20:-0.116698 21:0.342995 22:0.913918 23:-0.82413 24:0.05268 25:0.385366 26:-0.558037 27:-0.375046 28:-0.585734 29:0.547464 30:-0.818766 31:-0.410897 32:-0.666863 33:0.585302 34:-0.484015 35:-0.486175 36:-0.606056 
-1024 1:-0.825502 2:-0.693809 3:-0.697013 4:0.13549 5:-0.965476 6:-0.777369 7:-0.717967 8:0.374848 9:-0.977384 10:-0.725814 11:-0.589587 12:0.380363 13:-0.957085 14:-0.893298 15:-0.607061 16:0.406127 17:-0.957241 18:-0.892431 19:-0.288221 20:-0.362911 21:-0.18599 22:-0.108187 23:-0.703761 24:-0.534593 25:-0.229268 26:0.341883 27:-0.772601 28:-0.396673 29:-0.0845254 30:-0.179485 31:-0.684756 32:-0.691793 33:-0.0734908 34:-0.0513913 35:-0.710952 36:-0.675683 
1024 1:-0.837715 2:-0.836781 3:-0.732575 4:0.134003 5:-0.99622 6:-0.893212 7:-0.740873 8:0.204088 9:-0.995554 10:-0.896708 11:-0.640123 12:0.502488 13:-0.992784 14:-0.940592 15:-0.654643 16:0.521743 17:-0.992855 18:-0.94054 19:-0.20802 20:-0.556769 21:-0.137681 22:0.246498 23:-0.932563 24:-0.672429 25:-0.146341 26:0.354039 27:-0.9254 28:-0.687196 29:-0.00390117 30:0.399372 31:-0.914826 32:-0.774618 33:0.00262467 34:0.400402 35:-0.912743 36:-0.77616 
1024 1:-0.80149 2:-0.582198 3:-0.645804 4:-0.0855349 5:-0.866583 6:-0.703808 7:-0.6335 8:0.628637 9:-0.973085 10:-0.560489 11:-0.525268 12:0.0533725 13:-0.872231 14:-0.867663 15:-0.533384 16:0.173502 17:-0.885762 18:-0.857212 19:0.00322234 20:-0.24172 21:0.0289855 22:-0.219913 23:-0.539732 24:-0.425137 26:0.498175 27:-0.713782 28:-0.191794 29:0.323797 30:-0.561127 31:-0.544745 32:-0.694062 33:0.304462 34:-0.202471 35:-0.617839 36:-0.625846 
1024 1:-0.810598 2:-0.661696 3:-0.615932 4:0.15719 5:-0.962204 6:-0.769346 7:-0.662133 8:0.584886 9:-0.990139 10:-0.676853 11:-0.50536 12:0.533163 13:-0.962933 14:-0.865946 15:-0.518035 16:0.534814 17:-0.961836 18:-0.868489 19:-0.0640888 20:-0.222866 21:-0.0362319 22:-0.0809995 23:-0.593613 24:-0.378048 25:-0.0390244 26:0.713934 27:-0.791968 28:-0.133567 29:0.16775 30:0.0433064 31:-0.669571 32:-0.553143 33:0.178478 34:-0.0369084 35:-0.646265 36:-0.579161 
569.158770977262 1:-0.809563 2:-0.425032 3:-0.598862 4:0.858335 5:-0.957666 6:-0.157522 7:-0.593414 8:-0.647152 9:-0.632439 10:-0.765481 11:-0.543645 12:-0.406083 13:-0.662766 14:-0.812598 15:-0.562548 16:-0.428227 17:-0.644671 18:-0.822415 19:-0.270319 20:-0.228558 21:-0.0700483 22:0.785971 23:-0.849784 24:-0.0319355 25:0.0219512 26:-0.790693 27:-0.308093 28:-0.69304 29:0.0715215 30:-0.574379 31:-0.482177 32:-0.653945 33:0.0603675 34:-0.629035 35:-0.446161 36:-0.668458 
1024 1:-0.838336 2:-0.801051 3:-0.745377 4:0.251513 5:-0.997088 6:-0.83733 7:-0.715104 8:0.228279 9:-0.992997 10:-0.876887 11:-0.627871 12:0.578473 13:-0.99174 14:-0.92053 15:-0.640829 16:0.583401 17:-0.991236 18:-0.921646 19:-0.273183 20:-0.474513 21:-0.188406 22:0.416339 23:-0.913176 24:-0.499624 25:-0.173171 26:0.215593 27:-0.85739 28:-0.642604 29:-0.0663199 30:0.340433 31:-0.867262 32:-0.708647 33:-0.0656168 34:0.326015 35:-0.863737 36:-0.71692 
1024 1:-0.757814 2:-0.445027 3:-0.567568 4:0.011762 5:-0.809544 6:-0.530506 7:-0.570508 8:0.383855 9:-0.868535 10:-0.431824 11:-0.431853 12:-0.225018 13:-0.754427 14:-0.82625 15:-0.439754 16:-0.0390005 17:-0.784344 18:-0.80755 19:0.220909 20:-0.120986 21:0.147343 22:-0.163228 23:-0.445555 24:-0.270357 25:0.1 26:0.332644 27:-0.53511 28:-0.0722243 29:0.482445 30:-0.799825 31:-0.401383 32:-0.653592 33:0.44357 34:-0.409457 35:-0.479184 36:-0.567034 
-1024 1:-0.549783 2:-0.0840073 3:-0.165007 4:0.481142 5:-0.761334 6:-0.0703998 7:-0.173944 8:0.455802 9:-0.7409 10:-0.14968 11:-0.104135 12:-0.0586654 13:-0.549397 14:-0.526562 15:-0.115886 16:-0.050645 17:-0.546164 18:-0.536601 19:0.70068 20:0.220528 21:0.594203 22:0.370138 23:-0.405794 24:0.25629 25:0.609756 26:0.33176 27:-0.364378 28:0.13063 29:0.70091 30:-0.300054 31:-0.20845 32:-0.147441 33:0.729659 34:-0.295122 35:-0.210986 36:-0.172435 
-1024 1:-0.833782 2:-0.487251 3:-0.667141 4:0.803772 5:-0.969551 6:-0.226427 7:-0.673586 8:-0.696672 9:-0.638366 10:-0.812276 11:-0.624809 12:-0.396538 13:-0.692649 14:-0.843773 15:-0.642364 16:-0.413015 17:-0.67618 18:-0.852403 19:-0.316148 20:-0.268563 21:-0.115942 22:0.871472 23:-0.892856 24:-0.0501576 25:-0.0292683 26:-0.808231 27:-0.328501 28:-0.721834 29:0.0325098 30:-0.534929 31:-0.523781 32:-0.679298 33:0.0262467 34:-0.581027 35:-0.49451 36:-0.693588 
1024 1:-0.844753 2:-0.817957 3:-0.803698 4:0.00212353 5:-0.974567 6:-0.862556 7:-0.793844 8:0.148529 9:-0.987191 10:-0.873747 11:-0.759571 12:0.247467 13:-0.967082 14:-0.93875 15:-0.745203 16:0.418903 17:-0.98131 18:-0.929614 19:-0.510204 20:-0.595209 21:-0.437198 22:0.0685816 23:-0.884934 24:-0.654099 25:-0.407317 26:0.0115096 27:-0.850153 28:-0.743063 29:-0.318596 30:0.0630548 31:-0.862565 32:-0.81753 33:-0.32021 34:0.123227 35:-0.86831 36:-0.810312 
-1024 1:-0.779342 2:-0.484925 3:-0.59744 4:0.21477 5:-0.86922 6:-0.483036 7:-0.613457 8:0.0228335 9:-0.849715 10:-0.652351 11:-0.534456 12:-0.0485109 13:-0.80531 14:-0.824945 15:-0.548734 16:-0.0312267 17:-0.801618 18:-0.827228 19:0.0547798 20:-0.222147 21:0.0362319 22:0.300653 23:-0.708883 24:-0.228141 25:0.0609756 26:-0.253901 27:-0.486234 28:-0.500578 29:0.240572 30:-0.40932 31:-0.554364 32:-0.638936 33:0.257218 34:-0.421271 35:-0.542629 36:-0.650023 
1024 1:-0.847444 2:-0.686091 3:-0.758179 4:0.134052 5:-0.954961 6:-0.730419 7:-0.778096 8:-0.00158259 9:-0.901501 10:-0.749349 11:-0.704441 12:0.196897 13:-0.915085 14:-0.878645 15:-0.729854 16:0.080945 17:-0.886384 18:-0.889093 19:-0.218761 20:-0.353959 21:-0.171498 22:-0.157547 23:-0.673067 24:-0.532661 25:-0.163415 26:0.191468 27:-0.719354 28:-0.444277 29:-0.0403121 30:-0.0828774 31:-0.702632 32:-0.665729 33:-0.0603675 34:-0.034086 35:-0.698119 36:-0.649979 
1024 1:-0.682881 2:-0.308363 3:-0.41394 4:0.185855 5:-0.811204 6:-0.411568 7:-0.398712 8:0.735321 9:-0.898556 10:-0.275729 11:-0.254211 12:0.189643 13:-0.77764 14:-0.701249 15:-0.269378 16:0.134788 17:-0.764794 18:-0.717919 19:0.427855 20:0.113086 21:0.408213 22:0.0914623 23:-0.41592 24:-0.0174059 25:0.360976 26:0.624407 27:-0.519222 28:0.212 29:0.581274 30:-0.169759 31:-0.351334 32:-0.246196 33:0.585302 34:-0.328702 35:-0.301349 36:-0.309642 
-526.0129913832939 1:-0.855723 2:-0.760512 3:-0.798009 4:0.1547 5:-0.9801 6:-0.789071 7:-0.809592 8:0.107738 9:-0.962754 10:-0.81485 11:-0.7366 12:0.332085 13:-0.962412 14:-0.909643 15:-0.748273 16:0.333596 17:-0.960891 18:-0.913416 19:-0.56391 20:-0.510408 21:-0.461353 22:-0.139901 23:-0.769782 24:-0.627518 25:-0.478049 26:-0.118394 27:-0.701881 28:-0.640464 29:-0.412224 30:-0.0184724 31:-0.770848 32:-0.731509 33:-0.401575 34:-0.0960342 35:-0.749445 36:-0.756727 
1024 1:-0.852619 2:-0.703869 3:-0.779516 4:0.384751 5:-0.982079 6:-0.629152 7:-0.760916 8:-0.0580073 9:-0.933327 10:-0.845454 11:-0.695253 12:0.209165 13:-0.935936 14:-0.904017 15:-0.691481 16:0.299909 17:-0.94495 18:-0.899291 19:-0.513068 20:-0.397131 21:-0.345411 22:0.560444 23:-0.879559 24:-0.2397 25:-0.373171 26:-0.522028 27:-0.480135 28:-0.700366 29:-0.26658 30:-0.493631 31:-0.598547 32:-0.758687 33:-0.262467 34:-0.293702 35:-0.646616 36:-0.729821 
-1024 1:-0.806044 2:-0.581684 3:-0.604552 4:0.499985 5:-0.975342 6:-0.587769 7:-0.619184 8:0.460407 9:-0.964091 10:-0.647075 11:-0.441041 12:0.592517 13:-0.95307 14:-0.830455 15:-0.458173 16:0.593487 17:-0.951027 18:-0.83088 19:-0.233083 20:-0.140813 21:-0.0458937 22:0.342922 23:-0.635474 24:-0.0495577 25:-0.0487805 26:0.279162 27:-0.618374 28:-0.230078 29:0.0923277 30:-0.181443 31:-0.537807 32:-0.505926 33:0.112861 34:-0.125868 35:-0.543161 36:-0.498182 
1024 1:-0.83668 2:-0.738784 3:-0.711238 4:0.276445 5:-0.986447 6:-0.765863 7:-0.690766 8:0.289891 9:-0.984804 10:-0.814225 11:-0.554364 12:0.473233 13:-0.975889 14:-0.907993 15:-0.567153 16:0.494994 17:-0.976111 18:-0.907924 19:-0.384891 20:-0.468803 21:-0.277778 22:0.120577 23:-0.815235 24:-0.515997 25:-0.307317 26:0.123164 27:-0.793152 28:-0.593199 29:-0.13394 30:-0.103851 31:-0.769595 32:-0.762215 33:-0.131234 34:-0.0514003 35:-0.773778 36:-0.756771 
1024 1:-0.817636 2:-0.731176 3:-0.652916 4:0.199025 5:-0.983003 6:-0.811031 7:-0.677881 8:0.382745 9:-0.987859 10:-0.781651 11:-0.526799 12:0.497043 13:-0.976047 14:-0.903713 15:-0.541059 16:0.49975 17:-0.975131 18:-0.905728 19:-0.160043 20:-0.386898 21:-0.157005 22:-0.107748 23:-0.705046 24:-0.537558 25:-0.143902 26:0.412536 27:-0.8122 28:-0.421851 29:0.0637191 30:-0.0352975 31:-0.751403 32:-0.704972 33:0.0682415 34:-0.0891591 35:-0.73193 36:-0.717001 
-1024 1:-0.825295 2:-0.705037 3:-0.698435 4:0.150599 5:-0.970312 6:-0.783359 7:-0.719399 8:0.355164 9:-0.978522 10:-0.742699 11:-0.594181 12:0.389063 13:-0.960351 14:-0.896711 15:-0.611665 16:0.414754 17:-0.960392 18:-0.895586 19:-0.288937 20:-0.373201 21:-0.18599 22:-0.0641543 23:-0.728881 24:-0.535522 25:-0.231707 26:0.331401 27:-0.777988 28:-0.414471 29:-0.0871261 30:-0.171059 31:-0.69492 32:-0.700087 33:-0.0761155 34:-0.0299519 35:-0.723731 36:-0.681489 
1024 1:-0.824881 2:-0.739334 3:-0.669986 4:0.186553 5:-0.982866 6:-0.814066 7:-0.696492 8:0.364441 9:-0.988174 10:-0.788596 11:-0.54977 12:0.479389 13:-0.976132 14:-0.90722 15:-0.564083 16:0.481004 17:-0.975079 18:-0.90935 19:-0.213033 20:-0.409852 21:-0.21256 22:-0.136883 23:-0.700884 24:-0.55073 25:-0.2 26:0.348809 27:-0.808523 28:-0.458295 29:-0.00390117 30:-0.0591385 31:-0.754471 32:-0.720719 34:-0.129396 35:-0.731078 36:-0.735713 
-1024 1:-0.857793 2:-0.652431 3:-0.751067 4:0.269976 5:-0.956739 6:-0.632383 7:-0.759485 8:-0.356657 9:-0.816977 10:-0.830914 11:-0.765697 12:0.353053 13:-0.902497 14:-0.798924 15:-0.771297 16:-0.33239 17:-0.7655 18:-0.911956 19:-0.485141 20:-0.510451 21:-0.413043 22:0.105984 23:-0.853009 24:-0.572188 25:-0.382927 26:-0.539615 27:-0.566874 28:-0.780066 29:-0.396619 30:0.0865524 31:-0.785374 32:-0.69664 33:-0.372703 34:-0.50351 35:-0.640855 36:-0.829301 
-1024 1:-0.826537 2:-0.465387 3:-0.682788 4:0.0564541 5:-0.801798 6:-0.454856 7:-0.690766 8:0.015512 9:-0.772038 10:-0.505626 11:-0.595712 12:-0.255296 13:-0.7084 14:-0.804542 15:-0.607061 16:-0.354301 17:-0.676545 18:-0.827777 19:-0.232367 20:-0.223405 21:-0.125604 22:-0.177452 23:-0.489112 24:-0.325206 25:-0.170732 26:-0.12065 27:-0.442043 28:-0.347817 29:0.00130039 30:-0.596095 31:-0.42038 32:-0.609642 33:0.00262467 34:-0.759281 35:-0.356149 36:-0.657459 
1024 1:-0.825916 2:-0.648372 3:-0.732575 4:0.0537982 5:-0.912998 6:-0.686508 7:-0.72942 8:0.126115 9:-0.930951 10:-0.738796 11:-0.649311 12:0.0965863 13:-0.896851 14:-0.885816 15:-0.665388 16:0.102996 17:-0.892825 18:-0.888376 19:-0.18439 20:-0.37983 21:-0.18599 22:0.0975756 23:-0.752829 24:-0.444653 25:-0.202439 26:-0.120061 27:-0.647027 28:-0.582368 29:-0.0481144 30:-0.23847 31:-0.684286 32:-0.717315 33:-0.0367454 34:-0.260195 35:-0.672594 36:-0.72877 
-1024 1:-0.919892 2:-0.860321 3:-0.877667 4:-0.0768449 5:-0.975145 6:-0.894985 7:-0.881174 8:-0.028774 9:-0.977618 10:-0.913189 11:-0.839204 12:0.163525 13:-0.966886 14:-0.956727 15:-0.854183 16:0.201916 17:-0.968415 18:-0.956421 19:-0.747941 20:-0.720567 21:-0.635266 22:-0.126725 23:-0.903122 24:-0.792073 25:-0.65122 26:0.00624335 27:-0.911299 28:-0.818883 29:-0.596879 30:0.0420907 31:-0.897216 32:-0.875804 33:-0.587927 34:0.066426 35:-0.899918 36:-0.878829 
-410.0456940265869 1:-0.846616 2:-0.743727 3:-0.788051 4:0.100797 5:-0.961036 6:-0.763731 7:-0.782391 8:0.0315625 9:-0.948709 10:-0.82782 11:-0.725881 12:0.167837 13:-0.937576 14:-0.917275 15:-0.729854 16:0.222392 17:-0.942589 18:-0.916937 19:-0.592553 20:-0.556873 21:-0.47343 22:0.177707 23:-0.890282 24:-0.574366 25:-0.482927 26:-0.079116 27:-0.767285 28:-0.690372 29:-0.370611 30:-0.116518 31:-0.796049 32:-0.807217 33:-0.391076 34:-0.100422 35:-0.788109 36:-0.804035 
1024 1:-0.844132 2:-0.820144 3:-0.751067 4:0.127167 5:-0.991395 6:-0.866814 7:-0.740873 8:0.163456 9:-0.989016 10:-0.883113 11:-0.673813 12:0.445061 13:-0.984713 14:-0.929284 15:-0.693016 16:0.425111 17:-0.982171 18:-0.932751 19:-0.576799 20:-0.63084 21:-0.374396 22:0.218475 23:-0.950905 24:-0.702324 25:-0.382927 26:0.224516 27:-0.921809 28:-0.73281 29:-0.355007 30:0.358678 31:-0.910603 32:-0.768772 33:-0.354331 34:0.245938 35:-0.894073 36:-0.797201 
-1009.636541606734 1:-0.877044 2:-0.510757 3:-0.681366 4:-0.223161 5:-0.786012 6:-0.665393 7:-0.692198 8:-0.187211 9:-0.785793 10:-0.682393 11:-0.664625 12:-0.263557 13:-0.695368 14:-0.803038 15:-0.677667 16:-0.271134 17:-0.685758 18:-0.813726 19:-0.723595 20:-0.53711 21:-0.531401 22:-0.13529 23:-0.787382 24:-0.641767 25:-0.541463 26:-0.0804595 27:-0.765993 28:-0.68755 29:-0.508453 30:-0.165583 31:-0.725367 32:-0.755137 33:-0.503937 34:-0.192032 35:-0.715921 36:-0.77304 
1024 1:-0.58373 2:-0.262594 3:-0.284495 4:-0.0559278 5:-0.730068 6:-0.460675 7:-0.229778 8:-0.152738 9:-0.718811 10:-0.559421 11:-0.160796 12:-0.123566 13:-0.678464 14:-0.701835 15:-0.177283 16:-0.105267 17:-0.676603 18:-0.707591 19:-0.0118153 20:-0.381927 21:-0.120773 22:0.280727 23:-0.836061 24:-0.450263 25:-0.112195 26:0.0135644 27:-0.732119 28:-0.596595 29:0.0351105 30:-0.118699 31:-0.729056 32:-0.714238 33:0.0262467 34:-0.160886 35:-0.711635 36:-0.725894 
-1024 1:-0.764024 2:-0.565419 3:-0.519203 4:0.551549 5:-0.980816 6:-0.608032 7:-0.520401 8:0.596602 9:-0.979093 10:-0.651432 11:-0.264931 12:0.721161 13:-0.965754 14:-0.830897 15:-0.278588 16:0.739969 17:-0.966376 18:-0.830574 19:0.213033 20:-0.0882204 21:0.198068 22:0.463297 23:-0.677099 24:-0.045752 25:0.214634 26:0.427903 27:-0.642927 28:-0.163818 29:0.425228 30:-0.0249314 31:-0.577561 32:-0.461406 33:0.461942 34:0.0282421 35:-0.589989 36:-0.463845 
-1024 1:-0.837715 2:-0.797851 3:-0.728307 4:0.110026 5:-0.986301 6:-0.857866 7:-0.727989 8:0.132557 9:-0.981853 10:-0.872858 11:-0.683002 12:0.37458 13:-0.973556 14:-0.921704 15:-0.703761 16:0.312857 17:-0.966335 18:-0.929622 19:-0.556749 20:-0.61758 21:-0.364734 22:0.13801 23:-0.928319 24:-0.702644 25:-0.363415 26:0.178449 27:-0.904795 28:-0.73096 29:-0.362809 30:0.273912 31:-0.883265 32:-0.757308 33:-0.364829 34:0.147769 35:-0.860292 36:-0.787484 
-1024 1:-0.722832 2:-0.410753 3:-0.520626 4:-0.0541042 5:-0.778705 6:-0.5308 7:-0.494631 8:-0.14578 9:-0.76322 10:-0.621692 11:-0.419602 12:-0.0782304 13:-0.755166 14:-0.77677 15:-0.43208 16:-0.0676605 17:-0.752811 18:-0.783653 19:-0.168636 20:-0.415524 21:-0.21256 22:0.248241 23:-0.841115 24:-0.471253 25:-0.207317 26:-0.0103098 27:-0.734608 28:-0.612393 29:-0.0845254 30:-0.131042 31:-0.734835 32:-0.730011 33:-0.0944882 34:-0.177567 35:-0.715627 36:-0.742245 
658.871696314486 1:-0.734217 2:-0.37407 3:-0.459459 4:0.891106 5:-0.942776 6:-0.14133 7:-0.460272 8:-0.646967 9:-0.635883 10:-0.750894 11:-0.375191 12:-0.652303 13:-0.618681 14:-0.840071 15:-0.381427 16:-0.42607 17:-0.659419 18:-0.816497 19:0.321876 20:-0.155678 21:0.304348 22:0.97724 23:-0.855267 24:0.0402205 25:0.343902 26:-0.594204 27:-0.391299 28:-0.62292 29:0.547464 30:-0.800159 31:-0.456242 32:-0.700049 33:0.564304 34:-0.469867 35:-0.524442 36:-0.640485 
1024 1:-0.810805 2:-0.713813 3:-0.644381 4:0.297735 5:-0.98413 6:-0.760043 7:-0.622047 8:0.291589 9:-0.981957 10:-0.814416 11:-0.497703 12:0.512532 13:-0.974056 14:-0.896621 15:-0.514965 16:0.525728 17:-0.97341 18:-0.896341 19:-0.0748299 20:-0.366993 21:-0.0748792 22:0.376082 23:-0.841042 24:-0.390542 25:-0.095122 26:0.135558 27:-0.759773 28:-0.551245 29:0.144343 30:0.029024 31:-0.778684 32:-0.712566 33:0.144357 34:0.127126 35:-0.791482 36:-0.697656 
-345.5303565761241 1:-0.867729 2:-0.688017 3:-0.795164 4:0.247358 5:-0.964271 6:-0.657587 7:-0.802434 8:-0.350498 9:-0.826975 10:-0.843994 11:-0.784074 12:0.240424 13:-0.907023 14:-0.850246 15:-0.794321 16:-0.206385 17:-0.818808 18:-0.917755 19:-0.544576 20:-0.544372 21:-0.475845 22:0.111963 23:-0.873899 24:-0.59423 25:-0.44878 26:-0.521798 27:-0.585436 28:-0.790882 29:-0.453836 30:0.0476031 31:-0.796733 32:-0.733501 33:-0.44357 34:-0.430779 35:-0.676311 36:-0.837609 
-21.04489983944948 1:-0.732561 2:-0.276098 3:-0.4367 4:0.791037 5:-0.897304 6:-0.0696154 7:-0.40587 8:-0.528052 9:-0.608607 10:-0.648943 11:-0.388974 12:-0.344725 13:-0.581733 14:-0.700927 15:-0.410591 16:-0.371702 17:-0.564895 18:-0.715567 19:-0.0762621 20:-0.150272 21:0.0676329 22:0.76134 23:-0.805371 24:0.0127938 25:0.158537 26:-0.701835 27:-0.308755 28:-0.630675 29:0.19896 30:-0.52073 31:-0.440366 32:-0.574914 33:0.191601 34:-0.59674 35:-0.409558 36:-0.606208 
1024 1:-0.832126 2:-0.622064 3:-0.697013 4:0.484245 5:-0.980324 6:-0.583489 7:-0.693629 8:0.0445668 9:-0.91429 10:-0.757124 11:-0.595712 12:0.338502 13:-0.927652 14:-0.855474 15:-0.61627 16:0.317326 17:-0.920874 18:-0.859225 19:-0.108485 20:-0.207561 21:-0.0458937 22:0.502839 23:-0.773157 24:-0.14443 25:-0.0243902 26:-0.185979 27:-0.483844 28:-0.448581 29:0.0793238 30:-0.147774 31:-0.58968 32:-0.552541 33:0.0839895 34:-0.190006 35:-0.566656 36:-0.56516 
1024 1:-0.870213 2:-0.682119 3:-0.759602 4:0.326657 5:-0.973918 6:-0.649487 7:-0.7466 8:0.0249414 9:-0.936574 10:-0.809246 11:-0.686064 12:0.197134 13:-0.92381 14:-0.890766 15:-0.696086 16:0.300713 17:-0.934382 18:-0.882663 19:-0.553885 20:-0.446018 21:-0.36715 22:0.382932 23:-0.873854 24:-0.389308 25:-0.365854 26:-0.202115 27:-0.674002 28:-0.668764 29:-0.315995 30:-0.234749 31:-0.680777 32:-0.72556 33:-0.325459 34:0.00486684 35:-0.728395 36:-0.674833 
-1024 1:-0.793832 2:-0.415592 3:-0.58037 4:0.0619129 5:-0.821224 6:-0.510367 7:-0.58912 8:-0.00757593 9:-0.782628 10:-0.554 11:-0.557427 12:-0.00254074 13:-0.727827 14:-0.72145 15:-0.568688 16:-0.112803 17:-0.696451 18:-0.749158 19:-0.239527 20:-0.256022 21:-0.0990338 22:-0.183219 23:-0.601427 24:-0.466641 25:-0.109756 26:-0.14762 27:-0.537027 28:-0.478188 29:-0.0637191 30:-0.169073 31:-0.568386 32:-0.543064 33:-0.0524934 34:-0.323591 35:-0.51953 36:-0.5923 
1024 1:-0.691368 2:-0.337306 3:-0.41963 4:0.116574 5:-0.819371 6:-0.484869 7:-0.425913 8:0.29219 9:-0.838117 10:-0.46144 11:-0.402757 12:-0.0306961 13:-0.696751 14:-0.692428 15:-0.412126 16:-0.0451426 17:-0.688014 18:-0.703581 19:0.230218 20:-0.183388 21:0.173913 22:0.0868578 23:-0.678103 24:-0.373033 25:0.214634 26:0.225249 27:-0.68223 28:-0.391781 29:0.248375 30:-0.0562616 31:-0.594136 32:-0.503662 33:0.24147 34:-0.0566562 35:-0.583375 36:-0.506387 
1024 1:-0.718278 2:-0.392519 3:-0.477952 4:0.20187 5:-0.848606 6:-0.471325 7:-0.487473 8:0.234226 9:-0.843222 10:-0.506392 11:-0.408882 12:0.144738 13:-0.785231 14:-0.728279 15:-0.404451 16:0.104037 17:-0.78189 18:-0.751891 19:0.55102 20:-0.0306738 21:0.405797 22:0.197202 23:-0.565829 24:-0.13289 25:0.409756 26:0.182609 27:-0.519663 28:-0.207951 29:0.443433 30:0.173611 31:-0.510413 32:-0.243015 33:0.506562 34:-0.288084 35:-0.401095 36:-0.406837 
1024 1:-0.817636 2:-0.787284 3:-0.687055 4:0.118275 5:-0.985177 6:-0.856255 7:-0.697924 8:0.230407 9:-0.98749 10:-0.853582 11:-0.586524 12:0.415781 13:-0.979389 14:-0.927919 15:-0.597851 16:0.445644 17:-0.980021 18:-0.927295 19:-0.347655 20:-0.534963 21:-0.272947 22:0.190196 23:-0.898091 24:-0.617547 25:-0.236585 26:0.284723 27:-0.896464 28:-0.661908 29:-0.0975293 30:0.155635 31:-0.871992 32:-0.795178 33:-0.0682415 34:0.241904 35:-0.885018 36:-0.789743 
-1024 1:-0.798385 2:-0.471528 3:-0.631579 4:0.0268042 5:-0.842515 6:-0.574468 7:-0.639227 8:0.209836 9:-0.84873 10:-0.50875 11:-0.578867 12:-0.0385508 13:-0.782953 14:-0.798781 15:-0.590177 16:0.0207959 17:-0.788845 18:-0.795975 19:-0.16792 20:-0.1915 22:-0.128263 23:-0.581619 24:-0.40281 25:-0.0682927 26:0.308518 27:-0.640222 28:-0.234217 29:0.0715215 30:-0.286644 31:-0.534017 32:-0.561312 33:0.0813648 34:-0.173415 35:-0.559204 36:-0.546865 
-1024 1:-0.788243 2:-0.559528 3:-0.607397 4:0.348896 5:-0.940481 6:-0.567583 7:-0.609162 8:0.143758 9:-0.912432 10:-0.703874 11:-0.514548 12:0.267818 13:-0.897403 14:-0.834385 15:-0.521105 16:0.27015 17:-0.896446 18:-0.84091 19:-0.00537057 20:-0.20212 21:0.0507246 22:0.502166 23:-0.772881 24:-0.164668 25:0.0780488 26:-0.00453344 27:-0.60253 28:-0.451119 29:0.185956 30:0.0539508 31:-0.646626 32:-0.514822 33:0.183727 34:-0.0701531 35:-0.612092 36:-0.552558 
-1024 1:-0.698406 2:-0.275214 3:-0.41963 4:0.0930132 5:-0.766019 6:-0.395794 7:-0.410165 8:0.175442 9:-0.753277 10:-0.376735 11:-0.364472 12:-0.125663 13:-0.636938 14:-0.664243 15:-0.399847 16:-0.0502431 17:-0.630898 18:-0.641731 19:0.217329 20:-0.0733673 21:0.282609 22:-0.220493 23:-0.459979 24:-0.337336 25:0.25122 26:0.23788 27:-0.539526 28:-0.178987 29:0.370611 30:-0.418907 31:-0.405772 32:-0.471741 33:0.299213 34:-0.111494 35:-0.449712 36:-0.364381 
-1024 1:-0.866901 2:-0.774378 3:-0.826458 4:0.193162 5:-0.985149 6:-0.772944 7:-0.813887 8:-0.0807648 9:-0.942681 10:-0.870892 11:-0.756508 12:0.29583 13:-0.960646 14:-0.915831 15:-0.786646 16:0.15 17:-0.940054 18:-0.932874 19:-0.60759 20:-0.614782 21:-0.565217 22:0.0848389 23:-0.905308 24:-0.657816 25:-0.536585 26:-0.388819 27:-0.685101 28:-0.803524 29:-0.518856 30:0.0502387 31:-0.841767 32:-0.795412 33:-0.514436 34:-0.231546 35:-0.775238 36:-0.853548 
-1024 1:-0.867315 2:-0.808033 3:-0.822191 4:0.0240443 5:-0.978516 6:-0.858552 7:-0.83393 8:0.0832163 9:-0.972837 10:-0.85199 11:-0.816233 12:0.255981 13:-0.959535 14:-0.922818 15:-0.829624 16:0.23206 17:-0.954895 18:-0.930066 19:-0.636233 20:-0.662531 21:-0.567633 22:-0.208685 23:-0.860298 24:-0.78753 25:-0.578049 26:-0.033911 27:-0.848082 28:-0.759006 29:-0.563069 30:-0.000923387 31:-0.842805 32:-0.821194 33:-0.551181 34:-0.142785 35:-0.805503 36:-0.850439 
-1024 1:-0.821983 2:-0.655337 3:-0.658606 4:0.3989 5:-0.980757 6:-0.670739 7:-0.66786 8:0.380538 9:-0.974569 10:-0.725818 11:-0.517611 12:0.556389 13:-0.965608 14:-0.864329 15:-0.533384 16:0.578382 17:-0.965681 18:-0.862907 19:-0.326889 20:-0.24059 21:-0.205314 22:0.209429 23:-0.65144 24:-0.179424 25:-0.217073 26:0.185332 27:-0.636562 28:-0.322543 29:-0.0429129 30:-0.215706 31:-0.598209 32:-0.604562 33:-0.0262467 34:-0.0995531 35:-0.623661 36:-0.589045 
7.342509335835135 1:-0.851377 2:-0.689451 3:-0.775249 4:0.344061 5:-0.970073 6:-0.608407 7:-0.758053 8:-0.0569632 9:-0.927096 10:-0.833378 11:-0.699847 12:0.151468 13:-0.920862 14:-0.900056 15:-0.697621 16:0.253192 17:-0.932381 18:-0.894235 19:-0.515217 20:-0.383694 21:-0.345411 22:0.570354 23:-0.87356 24:-0.213867 25:-0.37561 26:-0.565006 27:-0.442191 28:-0.698152 29:-0.263979 30:-0.533945 31:-0.576993 32:-0.756559 33:-0.262467 34:-0.329706 35:-0.626717 36:-0.726636 
-1024 1:-0.717864 2:-0.244712 3:-0.401138 4:0.484294 5:-0.816958 6:-0.152329 7:-0.394417 8:-0.246907 9:-0.638 10:-0.502541 11:-0.316998 12:-0.352115 13:-0.58364 14:-0.700402 15:-0.333845 16:-0.294226 17:-0.58612 18:-0.697644 19:0.0247046 20:-0.129975 21:0.0990338 22:0.314233 23:-0.661254 24:-0.144469 25:0.163415 26:-0.290269 27:-0.399526 28:-0.435495 29:0.263979 30:-0.481057 31:-0.450102 32:-0.560514 33:0.288714 34:-0.491985 35:-0.43734 36:-0.573095 
1024 1:-0.85117 2:-0.65369 3:-0.779516 4:-0.0360572 5:-0.879889 6:-0.675027 7:-0.76378 8:0.273781 9:-0.940048 10:-0.650794 11:-0.698315 12:0.00960071 13:-0.86814 14:-0.880381 15:-0.71911 16:-0.0616333 17:-0.846805 18:-0.891767 19:-0.413534 20:-0.371776 21:-0.333333 22:-0.20447 23:-0.559363 24:-0.424011 25:-0.353659 26:-0.185576 27:-0.505358 28:-0.47341 29:-0.152146 30:-0.652454 31:-0.509285 32:-0.736818 33:-0.165354 34:-0.761154 35:-0.454168 36:-0.761445 
1024 1:-0.734424 2:-0.37689 3:-0.460882 4:0.886572 5:-0.942792 6:-0.145329 7:-0.463135 8:-0.641866 9:-0.639639 10:-0.752426 11:-0.376723 12:-0.647272 13:-0.622353 14:-0.841432 15:-0.384497 16:-0.424414 17:-0.662022 18:-0.81836 19:0.32474 20:-0.155608 21:0.306763 22:0.982326 23:-0.856656 24:0.0407417 25:0.346341 26:-0.595468 27:-0.390718 28:-0.62307 29:0.552666 30:-0.803555 31:-0.455629 32:-0.700624 33:0.566929 34:-0.474689 35:-0.523031 36:-0.64114 
-1024 1:-0.863175 2:-0.843417 3:-0.830725 4:0.0280894 5:-0.98821 6:-0.88799 7:-0.839656 8:0.114128 9:-0.987011 10:-0.880585 11:-0.797856 12:0.313281 13:-0.978395 14:-0.940896 15:-0.81274 16:0.320393 17:-0.977445 18:-0.943277 19:-0.649839 20:-0.694864 21:-0.599034 22:-0.190054 23:-0.8844 24:-0.80673 25:-0.609756 26:-0.0324956 27:-0.867819 28:-0.782943 29:-0.591678 30:0.0126908 31:-0.865013 32:-0.844898 33:-0.582677 34:-0.0861919 35:-0.838518 36:-0.864862 
-852.2934887110946 1:-0.734217 2:-0.420599 3:-0.523471 4:0.0386091 5:-0.823982 6:-0.542946 7:-0.534717 8:0.367315 9:-0.865697 10:-0.447538 11:-0.424196 12:-0.0229935 13:-0.779163 14:-0.783824 15:-0.43208 16:0.0104718 17:-0.781555 18:-0.786838 19:0.373434 20:-0.0333419 21:0.285024 22:-0.0887917 23:-0.421838 24:-0.182035 25:0.270732 26:0.451282 27:-0.586124 28:-0.0573636 29:0.427828 30:-0.24789 31:-0.451245 32:-0.425425 33:0.461942 34:-0.313667 35:-0.42856 36:-0.456143 
-1024 1:-0.854481 2:-0.749782 3:-0.786629 4:0.183505 5:-0.981119 6:-0.777642 7:-0.798139 8:0.118324 9:-0.961622 10:-0.807991 11:-0.724349 12:0.343888 13:-0.961172 14:-0.904692 15:-0.737529 16:0.332226 17:-0.958318 18:-0.909895 19:-0.546008 20:-0.495465 21:-0.442029 22:-0.12414 23:-0.764656 24:-0.610225 25:-0.45122 26:-0.133912 27:-0.685268 28:-0.633178 29:-0.391417 30:-0.0251542 31:-0.758408 32:-0.718032 33:-0.375328 34:-0.124159 35:-0.733704 36:-0.750651 
-1024 1:-0.864624 2:-0.761801 3:-0.796586 4:-0.00420423 5:-0.960412 6:-0.829039 7:-0.803865 8:0.0920709 9:-0.958637 10:-0.814165 11:-0.800919 12:0.221357 13:-0.935693 14:-0.897859 15:-0.811205 16:0.16271 17:-0.92596 18:-0.91199 19:-0.621912 20:-0.630799 21:-0.528986 22:-0.216349 23:-0.843748 24:-0.7727 25:-0.54878 26:-0.0187444 27:-0.834845 28:-0.73296 29:-0.537061 30:0.00297433 31:-0.824958 32:-0.795358 33:-0.514436 34:-0.184017 35:-0.778536 36:-0.836943 
1024 1:-0.737321 2:-0.449438 3:-0.503556 4:0.0627329 5:-0.855768 6:-0.591712 7:-0.530422 8:0.0026002 9:-0.824132 10:-0.625322 11:-0.509954 12:0.161732 13:-0.792514 14:-0.730721 15:-0.51957 16:0.0714983 17:-0.770459 18:-0.752847 19:0.00179019 20:-0.30287 21:0.0120773 22:0.167677 23:-0.771474 24:-0.440812 25:-0.0268293 26:0.195024 27:-0.72597 28:-0.462893 29:0.0247074 30:0.124351 31:-0.693543 32:-0.543026 33:0.0209974 34:0.101643 35:-0.677503 36:-0.546394 
1024 1:-0.685779 2:-0.280005 3:-0.403983 4:0.378166 5:-0.828723 6:-0.284526 7:-0.3801 8:-0.140308 9:-0.71865 10:-0.549855 11:-0.358346 12:-0.22047 13:-0.638017 14:-0.704464 15:-0.379893 16:0.0768285 17:-0.688081 18:-0.649587 19:0.0118153 20:-0.222944 21:0.031401 22:0.539675 23:-0.798078 24:-0.177865 25:0.0756098 26:-0.160962 27:-0.58062 28:-0.537152 29:0.102731 30:-0.316907 31:-0.553894 32:-0.598982 33:0.0944882 34:-0.0229049 35:-0.610983 36:-0.52609 
1024 1:-0.808114 2:-0.551791 3:-0.657183 4:0.0790419 5:-0.89321 6:-0.637409 7:-0.646385 8:0.389432 9:-0.933302 10:-0.584153 11:-0.568147 12:0.227394 13:-0.881696 14:-0.824574 15:-0.580967 16:0.271085 17:-0.884627 18:-0.82283 19:-0.0955961 20:-0.177779 21:0.00966184 22:0.0714081 23:-0.636519 24:-0.312402 25:0.0292683 26:0.368739 27:-0.673408 28:-0.2444 29:0.123537 30:-0.0887333 31:-0.583626 32:-0.510464 33:0.12336 34:-0.0318244 35:-0.589491 36:-0.502222 
1024 1:-0.68847 2:-0.58308 3:-0.439545 4:-0.0652542 5:-0.907912 6:-0.78144 7:-0.430208 8:-0.00601647 9:-0.908631 10:-0.790093 11:-0.399694 12:0.132503 13:-0.883152 14:-0.857136 15:-0.407521 16:0.0945903 17:-0.877269 18:-0.869389 19:-0.0383101 20:-0.534134 21:-0.0797101 22:0.177559 23:-0.910036 24:-0.672065 25:-0.0634146 26:0.239963 27:-0.89244 28:-0.696596 29:-0.0689207 30:0.313334 31:-0.865374 32:-0.717684 33:-0.0761155 34:0.167363 35:-0.841019 36:-0.751999 
-804.8984131612015 1:-0.850756 2:-0.657396 3:-0.780939 4:-0.0409285 5:-0.880047 6:-0.679035 7:-0.766643 8:0.271633 9:-0.940983 10:-0.65413 11:-0.701378 12:0.00502653 13:-0.868389 14:-0.882193 15:-0.720645 16:-0.0632898 17:-0.84756 18:-0.8931 19:-0.412818 20:-0.374661 21:-0.335749 22:-0.197691 23:-0.563173 24:-0.422517 25:-0.358537 26:-0.180353 27:-0.510328 28:-0.474492 29:-0.146944 30:-0.672147 31:-0.506988 32:-0.743076 33:-0.16273 34:-0.760114 35:-0.459744 36:-0.765117 
1024 1:-0.826744 2:-0.731921 3:-0.598862 4:0.136995 5:-0.983009 6:-0.85122 7:-0.722262 8:0.52755 9:-0.99697 10:-0.745801 11:-0.51608 12:0.602249 13:-0.983924 14:-0.89769 15:-0.52878 16:0.604304 17:-0.983306 18:-0.899571 19:-0.101325 20:-0.329117 21:-0.0603865 22:-0.240215 23:-0.637093 24:-0.552205 25:-0.0560976 26:0.945814 27:-0.916961 28:-0.232541 29:0.115735 30:0.1156 31:-0.749824 32:-0.63099 33:0.115486 34:0.0771729 35:-0.737337 36:-0.644238 
1024 1:-0.806458 2:-0.595824 3:-0.671408 4:-0.0263881 5:-0.886697 6:-0.698765 7:-0.66786 8:0.357701 9:-0.939992 10:-0.621309 11:-0.592649 12:0.0711366 13:-0.869973 14:-0.860661 15:-0.600921 16:0.203285 17:-0.887209 18:-0.849375 19:-0.315431 20:-0.363302 21:-0.198068 22:-0.0609807 23:-0.703987 24:-0.498159 25:-0.160976 26:0.291016 27:-0.783002 28:-0.465431 29:-0.0975293 30:-0.212309 31:-0.665296 32:-0.685046 33:-0.0761155 34:-0.0962332 35:-0.684691 36:-0.665312 
-1024 1:-0.81598 2:-0.67883 3:-0.715505 4:0.0513625 5:-0.932601 6:-0.738762 7:-0.709377 8:0.145026 9:-0.944317 10:-0.763843 11:-0.666156 12:0.0457207 13:-0.896172 14:-0.899876 15:-0.671527 16:0.27434 17:-0.92544 18:-0.878268 19:-0.322592 20:-0.451186 21:-0.285024 22:0.0456019 23:-0.783668 24:-0.52263 25:-0.204878 26:0.0174943 27:-0.756784 28:-0.622551 29:-0.120936 30:-0.221627 31:-0.725408 32:-0.759908 33:-0.125984 34:-0.0451675 35:-0.755411 36:-0.73059 
-1024 1:-0.754295 2:-0.201366 3:-0.462304 4:0.172288 5:-0.701535 6:-0.184964 7:-0.478883 8:0.284565 9:-0.727604 10:-0.220075 11:-0.427259 12:-0.175971 13:-0.541435 14:-0.58705 15:-0.43515 16:-0.27507 17:-0.507184 18:-0.619331 19:-0.119227 20:0.0578103 21:0.103865 22:0.081205 23:-0.357473 24:0.075937 25:0.095122 26:0.110922 27:-0.377548 28:-0.067038 29:0.175553 30:-0.447676 31:-0.242037 32:-0.314082 33:0.178478 34:-0.434189 35:-0.21743 36:-0.304622 
-1024 1:-0.934175 2:-0.680898 3:-0.843528 4:-0.222928 5:-0.837462 6:-0.742556 7:-0.858268 8:-0.113077 9:-0.866609 10:-0.753647 11:-0.811639 12:-0.192154 13:-0.800096 14:-0.8896 15:-0.828089 16:-0.184146 17:-0.792145 18:-0.894063 19:-0.83387 20:-0.582636 21:-0.615942 22:-0.281945 23:-0.740785 24:-0.690484 25:-0.631707 26:-0.123236 27:-0.761672 28:-0.710479 29:-0.594278 30:-0.243547 31:-0.710288 32:-0.786103 33:-0.595801 34:-0.258929 35:-0.699327 36:-0.798966 
1024 1:-0.755537 2:-0.350719 3:-0.497866 4:0.345866 5:-0.848971 6:-0.341524 7:-0.483178 8:-0.174894 9:-0.737391 10:-0.60105 11:-0.467075 12:-0.238115 13:-0.657517 14:-0.738117 15:-0.493477 16:0.0665289 17:-0.710353 18:-0.683171 19:-0.189402 20:-0.255567 21:-0.0700483 22:0.485221 23:-0.79892 24:-0.208635 25:-0.0341463 26:-0.179628 27:-0.583109 28:-0.552811 29:-0.0169051 30:-0.328424 31:-0.558504 32:-0.616633 33:-0.0262467 34:-0.0317249 35:-0.616669 36:-0.541179 
1024 1:-0.823846 2:-0.74267 3:-0.668563 4:0.249622 5:-0.988247 6:-0.802901 7:-0.680744 8:0.355719 9:-0.990888 10:-0.811646 11:-0.546708 12:0.624824 13:-0.985602 14:-0.894749 15:-0.556408 16:0.60213 17:-0.983793 18:-0.899813 19:-0.0855711 20:-0.367572 21:-0.0193237 22:0.284736 23:-0.829926 24:-0.449638 25:-0.0219512 26:0.351747 27:-0.817336 28:-0.493477 29:0.136541 30:0.431556 31:-0.831219 32:-0.605886 33:0.152231 34:0.194882 35:-0.790569 36:-0.664418 
1024 1:-0.839785 2:-0.74227 3:-0.752489 4:0.0924991 5:-0.966821 6:-0.796255 7:-0.780959 8:0.101018 9:-0.956168 10:-0.806995 11:-0.712098 12:0.28937 13:-0.950199 14:-0.902258 15:-0.728319 16:0.269625 17:-0.944492 18:-0.9064 19:-0.308271 20:-0.460341 21:-0.236715 22:0.109172 23:-0.834052 24:-0.562064 25:-0.27561 26:0.194593 27:-0.810364 28:-0.570594 29:-0.19896 30:0.20559 31:-0.809338 32:-0.673072 33:-0.191601 34:0.14549 35:-0.790772 36:-0.686401 
-1024 1:-0.855723 2:-0.644638 3:-0.773826 4:0.497108 5:-0.976999 6:-0.499236 7:-0.792412 8:-0.39411 9:-0.816974 10:-0.85416 11:-0.738132 12:-0.0825678 13:-0.852395 14:-0.894648 15:-0.759018 16:-0.073819 17:-0.845293 18:-0.89689 19:-0.47082 20:-0.371686 21:-0.285024 22:0.767914 23:-0.922066 24:-0.180555 25:-0.24878 26:-0.722591 27:-0.414834 28:-0.757141 29:-0.185956 30:-0.43846 31:-0.607196 32:-0.734587 33:-0.188976 34:-0.488539 35:-0.579745 36:-0.749416 
1024 1:-0.861105 2:-0.884683 3:-0.836415 4:0.11464 5:-0.999017 6:-0.902339 7:-0.740873 8:0.0320317 9:-0.994861 10:-0.952967 11:-0.699847 12:0.398567 13:-0.994646 14:-0.96392 15:-0.71297 16:0.418067 17:-0.994606 18:-0.964094 19:-0.466523 20:-0.696719 21:-0.36715 22:0.343546 23:-0.988512 24:-0.752079 25:-0.307317 26:-0.0273156 27:-0.931076 28:-0.880136 29:-0.16775 30:0.227613 31:-0.948228 32:-0.893809 33:-0.165354 34:0.249177 35:-0.948565 36:-0.89336 
-1024 1:-0.847237 2:-0.855575 3:-0.830725 4:0.0802964 5:-0.993819 6:-0.885415 7:-0.769506 8:0.0889916 9:-0.991513 10:-0.91927 11:-0.701378 12:0.40818 13:-0.990746 14:-0.951266 15:-0.71604 16:0.408268 17:-0.989803 18:-0.953165 19:-0.588256 20:-0.691823 21:-0.574879 22:0.142919 23:-0.959719 24:-0.73718 25:-0.560976 26:-0.185002 27:-0.831739 28:-0.829555 29:-0.495449 30:0.130689 31:-0.909335 32:-0.858799 33:-0.506562 34:0.0256188 35:-0.888119 36:-0.877735 
1024 1:-0.806251 2:-0.69108 3:-0.645804 4:0.182079 5:-0.968672 6:-0.769614 7:-0.65927 8:0.365703 9:-0.977215 10:-0.747775 11:-0.534456 12:0.396656 13:-0.956538 14:-0.89002 15:-0.539524 16:0.463742 17:-0.960964 18:-0.886117 19:-0.316864 20:-0.426756 21:-0.217391 22:0.0795403 23:-0.801304 24:-0.532223 25:-0.185366 26:0.3029 27:-0.829579 28:-0.532898 29:-0.0845254 30:-0.0563544 31:-0.758333 32:-0.72594 33:-0.0734908 34:0.0695289 35:-0.777665 36:-0.70526 
-1024 1:-0.684123 2:-0.339272 3:-0.416785 4:0.12568 5:-0.810676 6:-0.459784 7:-0.428776 8:0.467709 9:-0.859305 10:-0.37571 11:-0.350689 12:-0.0333256 13:-0.731207 14:-0.731385 15:-0.358404 16:0.0106194 17:-0.735438 18:-0.732661 19:0.506624 20:0.0359898 21:0.388889 22:-0.0175359 23:-0.402604 24:-0.0989335 25:0.392683 26:0.470155 27:-0.545152 28:0.0125469 29:0.524057 30:-0.281123 31:-0.389655 32:-0.36606 33:0.56168 34:-0.320207 35:-0.372785 36:-0.390383 
-1024 1:-0.671497 2:-0.278355 3:-0.359886 4:0.526287 5:-0.861143 6:-0.245428 7:-0.367215 8:-0.0346286 9:-0.742268 10:-0.51646 11:-0.287902 12:0.0104293 13:-0.699479 14:-0.675847 15:-0.298542 16:-0.0151869 17:-0.69145 18:-0.691423 19:0.325456 20:-0.0329016 21:0.311594 22:0.570531 23:-0.690821 24:0.0143918 25:0.4 26:-0.0235724 27:-0.492337 28:-0.337963 29:0.435631 30:0.0331816 31:-0.513436 32:-0.337905 33:0.456693 34:-0.203096 35:-0.450991 36:-0.418362 
-1024 1:-0.837094 2:-0.932329 3:-0.899004 4:-0.0431438 5:-0.997585 6:-0.949349 7:-0.865426 8:0.00874553 9:-0.997089 10:-0.959448 11:-0.81317 12:0.34207 13:-0.996585 14:-0.975025 15:-0.828089 16:0.37331 17:-0.996986 18:-0.974713 19:-0.773004 20:-0.850279 21:-0.801932 22:-0.127299 23:-0.971206 24:-0.891208 25:-0.802439 26:-0.123631 27:-0.930284 28:-0.908546 29:-0.815345 30:0.0786271 31:-0.941915 32:-0.925415 33:-0.808399 34:0.0812165 35:-0.939456 36:-0.92897 
-1024 1:-0.668806 2:-0.311147 3:-0.375533 4:0.250907 5:-0.829239 6:-0.403511 7:-0.392985 8:0.213821 9:-0.799601 10:-0.441947 11:-0.353752 12:0.0474286 13:-0.698853 14:-0.660706 15:-0.349194 16:0.040698 17:-0.705498 18:-0.685512 19:0.651987 20:0.014714 21:0.480676 22:0.187412 23:-0.529271 24:-0.093461 25:0.487805 26:0.154439 27:-0.470867 28:-0.169707 29:0.495449 30:0.141287 31:-0.453381 32:-0.180399 33:0.553806 34:-0.324577 35:-0.339295 36:-0.353544 
-1024 1:-0.833575 2:-0.732247 3:-0.766714 4:0.0392394 5:-0.949687 6:-0.779492 7:-0.752326 8:0.139502 9:-0.962824 10:-0.808446 11:-0.713629 12:0.134355 13:-0.928395 14:-0.914428 15:-0.714505 16:0.33025 17:-0.950525 18:-0.898465 19:-0.395632 20:-0.495737 21:-0.350242 22:0.0657906 23:-0.822863 24:-0.561405 25:-0.285366 26:-0.0233569 27:-0.772817 28:-0.667234 29:-0.20156 30:-0.141909 31:-0.770088 32:-0.780979 33:-0.209974 34:0.00417029 35:-0.791255 36:-0.75572 
-1024 1:-0.654109 2:-0.214629 3:-0.376956 4:0.124927 5:-0.737283 6:-0.316099 7:-0.3801 8:0.543567 9:-0.802518 10:-0.177756 11:-0.246554 12:-0.0631804 13:-0.654567 14:-0.653344 15:-0.257099 16:-0.120848 17:-0.638874 18:-0.675751 19:0.515217 20:0.15017 21:0.466184 22:0.0659252 23:-0.377186 24:0.0071148 25:0.419512 26:0.588111 27:-0.477938 28:0.234411 29:0.641092 30:-0.174065 31:-0.317931 32:-0.204168 33:0.64042 34:-0.377099 35:-0.250524 36:-0.278187 
-1024 1:-0.778307 2:-0.547484 3:-0.581792 4:0.225529 5:-0.922173 6:-0.615036 7:-0.586256 8:0.323096 9:-0.929791 10:-0.636547 11:-0.477795 12:0.379771 13:-0.906667 14:-0.812606 15:-0.485802 16:0.302279 17:-0.895515 18:-0.829667 19:0.268887 20:-0.142204 21:0.21256 22:0.221634 23:-0.651662 24:-0.225235 25:0.221951 26:0.239705 27:-0.627835 28:-0.301659 29:0.313394 30:0.259277 31:-0.64035 32:-0.38591 33:0.372703 34:-0.144115 35:-0.552586 36:-0.513346 
1024 1:-0.856758 2:-0.893827 3:-0.826458 4:0.0738524 5:-0.998927 6:-0.922568 7:-0.823908 8:0.126412 9:-0.998606 10:-0.933652 11:-0.762634 12:0.493771 13:-0.998266 14:-0.9561 15:-0.775902 16:0.509762 17:-0.998214 18:-0.956338 19:-0.52381 20:-0.668785 21:-0.454106 22:0.168258 23:-0.949376 24:-0.717459 25:-0.390244 26:0.264017 27:-0.956552 28:-0.783581 29:-0.318596 30:0.420048 31:-0.949943 32:-0.82691 33:-0.325459 34:0.419353 35:-0.948003 36:-0.827725 
1024 1:-0.810391 2:-0.405256 3:-0.581792 4:0.733861 5:-0.921311 6:-0.139331 7:-0.599141 8:-0.498072 9:-0.663786 10:-0.71461 11:-0.545176 12:-0.416855 13:-0.648608 14:-0.804523 15:-0.556408 16:-0.241359 17:-0.681405 18:-0.78493 19:-0.270319 20:-0.133365 21:-0.0120773 22:0.833531 23:-0.791368 24:0.147754 25:0.0146341 26:-0.79698 27:-0.179855 28:-0.604778 29:0.0793238 30:-0.787825 31:-0.326035 32:-0.611222 33:0.0918635 34:-0.593366 35:-0.376343 36:-0.57987 
-222.7940351402248 1:-0.86835 2:-0.78263 3:-0.807966 4:0.231985 5:-0.989075 6:-0.773558 7:-0.759485 8:0.0384876 9:-0.973262 10:-0.885917 11:-0.701378 12:0.356444 13:-0.973161 14:-0.924641 15:-0.71911 16:0.397058 17:-0.974265 18:-0.921948 19:-0.589689 20:-0.541472 21:-0.432367 22:0.463418 23:-0.945512 24:-0.486879 25:-0.453659 26:-0.144258 27:-0.76002 28:-0.725744 29:-0.383615 30:-0.048559 31:-0.79512 32:-0.776615 33:-0.385827 34:0.108183 35:-0.821173 36:-0.74889 
-1024 1:-0.832747 2:-0.848785 3:-0.736842 4:0.0139039 5:-0.989502 6:-0.913304 7:-0.789549 8:0.215262 9:-0.996404 10:-0.888228 11:-0.667688 12:0.429411 13:-0.990512 14:-0.947838 15:-0.677667 16:0.455821 17:-0.990871 18:-0.947687 19:-0.566058 20:-0.658203 21:-0.444444 22:0.0128535 23:-0.918949 24:-0.752521 25:-0.468293 26:0.326558 27:-0.950701 28:-0.720418 29:-0.339402 30:0.195466 31:-0.917082 32:-0.84873 33:-0.335958 34:0.264266 35:-0.924443 36:-0.842277 
-1024 1:-0.834196 2:-0.617425 3:-0.721195 4:0.0577025 5:-0.896835 6:-0.648664 7:-0.707946 8:-0.00767505 9:-0.883287 10:-0.726341 11:-0.68147 12:0.0116976 13:-0.841903 14:-0.850126 15:-0.693016 16:-0.00139405 17:-0.834916 18:-0.858639 19:-0.566058 20:-0.509735 21:-0.456522 22:0.111715 23:-0.840264 24:-0.536643 25:-0.460976 26:-0.121713 27:-0.719318 28:-0.663523 29:-0.378414 30:-0.198528 31:-0.730454 32:-0.768202 33:-0.383202 34:-0.246617 35:-0.707745 36:-0.780947 
-1024 1:-0.705858 2:-0.387721 3:-0.415363 4:0.518625 5:-0.916536 6:-0.406303 7:-0.428776 8:0.597171 9:-0.921231 10:-0.452568 11:-0.217458 12:0.449162 13:-0.876447 14:-0.74857 15:-0.226401 16:0.466391 17:-0.876972 18:-0.750939 19:0.475832 20:0.0888896 21:0.425121 22:0.43295 23:-0.530642 24:0.14262 25:0.429268 26:0.443803 27:-0.516413 28:0.028789 29:0.576073 30:-0.175504 31:-0.382292 32:-0.290145 33:0.606299 34:-0.167906 35:-0.382052 36:-0.305884 
-1024 1:-0.769199 2:-0.451916 3:-0.55192 4:0.761516 5:-0.951122 6:-0.260273 7:-0.57194 8:-0.643287 9:-0.667086 10:-0.794272 11:-0.48392 12:-0.521909 13:-0.68857 14:-0.864213 15:-0.490407 16:-0.353252 17:-0.717702 18:-0.850304 19:0.288221 20:-0.192154 21:0.258454 22:1 23:-0.884807 24:-0.0129364 25:0.302439 26:-0.592882 27:-0.423346 28:-0.650622 29:0.524057 30:-0.674643 31:-0.521378 32:-0.709559 33:0.543307 34:-0.407259 35:-0.572376 36:-0.663454 
1024 1:-0.844339 2:-0.841453 3:-0.785206 4:-0.0108686 5:-0.985127 6:-0.903674 7:-0.819613 8:0.186306 9:-0.992595 10:-0.873411 11:-0.722818 12:0.353062 13:-0.98393 14:-0.946083 15:-0.739064 16:0.370243 17:-0.983359 18:-0.94601 19:-0.468672 20:-0.601334 21:-0.410628 22:-0.142274 23:-0.850295 24:-0.741906 25:-0.439024 26:0.320423 27:-0.91566 28:-0.648313 29:-0.308192 30:0.137083 31:-0.882258 32:-0.816575 33:-0.314961 34:0.170611 35:-0.883146 36:-0.812706 
-1024 1:-0.820741 2:-0.717142 3:-0.685633 4:0.274468 5:-0.982456 6:-0.755652 7:-0.680744 8:0.189193 9:-0.970151 10:-0.815667 11:-0.586524 12:0.451242 13:-0.966532 14:-0.892199 15:-0.603991 16:0.442848 17:-0.96424 18:-0.895422 19:-0.116362 20:-0.356648 21:-0.0748792 22:0.417479 23:-0.845331 24:-0.365092 25:-0.0780488 26:0.103644 27:-0.747193 28:-0.55674 29:0.0507152 30:0.201034 31:-0.777861 32:-0.630138 33:0.0498688 34:0.138008 35:-0.76327 36:-0.650905 
1024 1:-0.802525 2:-0.514735 3:-0.608819 4:-0.099243 5:-0.828009 6:-0.646592 7:-0.623479 8:0.313607 9:-0.895974 10:-0.543728 11:-0.600306 12:-0.152838 13:-0.744508 14:-0.801996 15:-0.61627 16:0.141266 17:-0.797411 18:-0.758254 19:-0.422127 20:-0.348099 21:-0.246377 22:-0.159637 23:-0.650983 24:-0.503105 25:-0.219512 26:0.254181 27:-0.7538 28:-0.440342 29:-0.185956 30:-0.295748 31:-0.593602 32:-0.64976 33:-0.154856 34:-0.18655 35:-0.620238 36:-0.638064 
-1024 1:-0.841441 2:-0.602735 3:-0.742532 4:0.00126066 5:-0.864704 6:-0.620459 7:-0.739442 8:0.216636 9:-0.904666 10:-0.607446 11:-0.661562 12:-0.0452303 13:-0.834476 14:-0.86032 15:-0.680737 16:-0.127375 17:-0.809312 18:-0.874321 19:-0.350519 20:-0.318453 21:-0.26087 22:-0.203195 23:-0.528475 24:-0.389234 25:-0.297561 26:-0.14438 27:-0.489862 28:-0.421238 29:-0.0975293 30:-0.615639 31:-0.484343 32:-0.691055 33:-0.0997375 34:-0.763008 35:-0.421127 36:-0.727118 
-1024 1:-0.736079 2:-0.308885 3:-0.487909 4:0.0512524 5:-0.766623 6:-0.424247 7:-0.487473 8:0.200063 9:-0.771092 10:-0.381671 11:-0.456355 12:-0.059198 13:-0.663052 14:-0.668283 15:-0.465848 16:-0.0243712 17:-0.662004 18:-0.667548 19:0.109202 20:-0.0312155 21:0.202899 22:0.0493067 23:-0.531036 24:-0.198841 25:0.207317 26:0.274787 27:-0.526036 28:-0.123449 29:0.271782 30:-0.19245 31:-0.428819 32:-0.368958 33:0.275591 34:-0.0867799 35:-0.447493 36:-0.346064 
1024 1:-0.842476 2:-0.741682 3:-0.755334 4:0.0217127 5:-0.957031 6:-0.811926 7:-0.753758 8:0.334375 9:-0.985567 10:-0.776174 11:-0.68147 12:0.367089 13:-0.961117 14:-0.900188 15:-0.696086 16:0.398993 17:-0.961938 18:-0.898936 19:-0.302542 20:-0.387258 21:-0.214976 22:0.0620008 23:-0.773108 24:-0.501369 25:-0.190244 26:0.384566 27:-0.820757 28:-0.453258 29:-0.0871261 30:0.117753 31:-0.773852 32:-0.664556 33:-0.0813648 34:0.147778 35:-0.775755 36:-0.663698 
-1024 1:-0.844753 2:-0.8829 3:-0.813656 4:0.0221043 5:-0.994765 6:-0.921272 7:-0.841088 8:0.127701 9:-0.996889 10:-0.918738 11:-0.722818 12:0.415748 13:-0.994634 14:-0.959757 15:-0.731389 16:0.444267 17:-0.995014 18:-0.959628 19:-0.578947 20:-0.708176 21:-0.509662 22:0.0291816 23:-0.942128 24:-0.77984 25:-0.492683 26:0.0948214 27:-0.932926 28:-0.817492 29:-0.394018 30:0.255277 31:-0.942106 32:-0.869351 33:-0.409449 34:0.253193 35:-0.937555 36:-0.867792 
1024 1:-0.853032 2:-0.917277 3:-0.830725 4:-0.00890415 5:-0.998071 6:-0.948492 7:-0.849678 8:0.0851062 9:-0.999054 10:-0.947937 11:-0.774885 12:0.421429 13:-0.998158 14:-0.968721 15:-0.789716 16:0.438805 17:-0.99808 18:-0.968847 19:-0.538131 20:-0.732132 21:-0.47343 22:0.0705722 23:-0.96561 24:-0.813334 25:-0.417073 26:0.240947 27:-0.972395 28:-0.832378 29:-0.357607 30:0.396374 31:-0.966398 32:-0.871961 33:-0.367454 34:0.383648 35:-0.963178 36:-0.873251 
598.1231228392599 1:-0.829849 2:-0.656479 3:-0.685633 4:-0.0205622 5:-0.921403 6:-0.765185 7:-0.696492 8:0.543964 9:-0.982453 10:-0.643462 11:-0.588055 12:0.200626 13:-0.920079 14:-0.885692 15:-0.591711 16:0.29407 17:-0.929248 18:-0.879665 19:-0.175081 20:-0.309412 21:-0.118357 22:-0.238451 23:-0.577583 24:-0.480477 25:-0.134146 26:0.440383 27:-0.740085 28:-0.268775 29:0.139142 30:-0.425598 31:-0.61484 32:-0.715844 33:0.125984 34:-0.178381 35:-0.659324 36:-0.668897 
-1024 1:-0.842062 2:-0.925293 3:-0.890469 4:-0.0328872 5:-0.997357 6:-0.945304 7:-0.868289 8:0.0266991 9:-0.997055 10:-0.953252 11:-0.807044 12:0.349426 13:-0.996149 14:-0.9727 15:-0.81888 16:0.378771 17:-0.996554 18:-0.972772 19:-0.745077 20:-0.830501 21:-0.76087 22:-0.143259 23:-0.960669 24:-0.884231 25:-0.758537 26:-0.114672 27:-0.923127 28:-0.896249 29:-0.773732 30:0.0683631 31:-0.932871 32:-0.916334 33:-0.769029 34:0.055453 35:-0.927205 36:-0.921724 
-1024 1:-0.849928 2:-0.909178 3:-0.813656 4:0.0207886 5:-0.998262 6:-0.940947 7:-0.81675 8:0.0918528 9:-0.998229 10:-0.944056 11:-0.76876 12:0.468896 13:-0.998401 14:-0.961359 15:-0.775902 16:0.483243 17:-0.998337 18:-0.96235 19:-0.681346 20:-0.743561 21:-0.524155 22:0.1872 23:-0.98468 24:-0.797737 25:-0.521951 26:0.337572 27:-0.984935 28:-0.806855 29:-0.440832 30:0.573683 31:-0.980928 32:-0.842151 33:-0.44357 34:0.522217 35:-0.976214 36:-0.850656 
-1024 1:-0.810805 2:-0.611129 3:-0.671408 4:0.0696298 5:-0.91463 6:-0.691266 7:-0.697924 8:0.0222322 9:-0.889498 10:-0.720303 11:-0.660031 12:0.180985 13:-0.876187 14:-0.832112 15:-0.668457 16:0.0973456 17:-0.857144 18:-0.848419 19:-0.180809 20:-0.357047 21:-0.101449 22:0.110319 23:-0.777985 24:-0.483836 25:-0.141463 26:0.157442 27:-0.735954 28:-0.497232 29:-0.0897269 30:0.0889931 31:-0.712642 32:-0.59033 33:-0.0839895 34:0.0537885 35:-0.694192 36:-0.597613 
-1024 1:-0.740633 2:-0.467963 3:-0.510669 4:0.242431 5:-0.904042 6:-0.568696 7:-0.498926 8:0.812799 9:-0.970508 10:-0.462559 11:-0.312404 12:0.4796 13:-0.907009 14:-0.785865 15:-0.321566 16:0.476272 17:-0.905409 18:-0.791315 19:0.278912 20:0.00382987 21:0.275362 22:0.109738 23:-0.508232 24:-0.118429 25:0.234146 26:0.653253 27:-0.609818 28:0.104968 29:0.472042 30:-0.0879537 31:-0.474984 32:-0.359519 33:0.496063 34:-0.226344 35:-0.438585 36:-0.415762 
-1024 1:-0.862968 2:-0.569893 3:-0.705548 4:0.317746 5:-0.929778 6:-0.520441 7:-0.72083 8:-0.171914 9:-0.826595 10:-0.734209 11:-0.661562 12:-0.169308 13:-0.785599 14:-0.852714 15:-0.685342 16:0.0437813 17:-0.820956 18:-0.826818 19:-0.499463 20:-0.365831 21:-0.294686 22:0.307008 23:-0.80187 24:-0.328416 25:-0.280488 26:-0.220701 27:-0.612298 28:-0.614742 29:-0.243173 30:-0.366863 31:-0.585194 32:-0.681953 33:-0.259843 34:-0.0180833 35:-0.663286 36:-0.600391 
890.7407282342002 1:-0.699234 2:-0.377541 3:-0.486486 4:0.200432 5:-0.813111 6:-0.390419 7:-0.488905 8:-0.0132521 9:-0.773973 10:-0.549987 11:-0.407351 12:-0.261705 13:-0.690084 14:-0.775104 15:-0.424405 16:-0.109474 17:-0.712993 18:-0.756891 19:0.367705 20:-0.128747 21:0.219807 22:0.320616 23:-0.650621 24:-0.136597 25:0.253659 26:-0.0325531 27:-0.524452 28:-0.380825 29:0.412224 30:-0.403529 31:-0.498591 32:-0.566724 33:0.401575 34:-0.175767 35:-0.537633 36:-0.511516 
1024 1:-0.791555 2:-0.389793 3:-0.596017 4:0.204153 5:-0.81406 6:-0.362797 7:-0.617752 8:0.260056 9:-0.822938 10:-0.414564 11:-0.490046 12:-0.0285062 13:-0.754295 14:-0.759757 15:-0.501151 16:0.010357 17:-0.754985 18:-0.758915 19:-0.135696 20:-0.00878959 21:0.0652174 22:0.129105 23:-0.436185 24:0.0209314 25:0.0414634 26:0.189284 27:-0.464728 28:-0.103562 29:0.141743 30:-0.38173 31:-0.333796 32:-0.379575 33:0.160105 34:-0.338101 35:-0.332088 36:-0.373182 
-1024 1:-0.823639 2:-0.749699 3:-0.694168 4:0.197097 5:-0.9855 6:-0.814156 7:-0.696492 8:0.311386 9:-0.988543 10:-0.818872 11:-0.574273 12:0.490896 13:-0.978626 14:-0.90887 15:-0.582502 16:0.515749 17:-0.979408 18:-0.909462 19:-0.150734 20:-0.443469 21:-0.144928 22:0.161507 23:-0.849707 24:-0.562221 25:-0.15122 26:0.253916 27:-0.836092 28:-0.582921 29:0.00130039 30:0.16485 31:-0.822777 32:-0.716441 33:-0.0104987 34:0.159195 35:-0.815928 36:-0.718372 
1024 1:-0.858621 2:-0.866525 3:-0.829303 4:0.021474 5:-0.990786 6:-0.901683 7:-0.853973 8:0.153141 9:-0.995486 10:-0.896555 11:-0.782542 12:0.394762 13:-0.989304 14:-0.946079 15:-0.797391 16:0.403438 17:-0.988517 18:-0.947052 19:-0.523093 20:-0.638013 21:-0.456522 22:0.0767705 23:-0.920709 24:-0.713707 25:-0.482927 26:0.206548 27:-0.912253 28:-0.713058 29:-0.427828 30:0.312453 31:-0.912991 32:-0.790576 33:-0.422572 34:0.271222 35:-0.903038 36:-0.799107 
1024 1:-0.722004 2:-0.455653 3:-0.507824 4:0.261396 5:-0.875356 6:-0.480576 7:-0.526127 8:0.0385603 9:-0.830825 10:-0.614114 11:-0.421133 12:-0.10286 13:-0.777701 14:-0.8095 15:-0.430545 16:0.0174912 17:-0.794033 18:-0.798357 19:0.347655 20:-0.155933 21:0.21256 22:0.35998 23:-0.686306 24:-0.159977 25:0.236585 26:-0.0143691 27:-0.553731 28:-0.402313 29:0.412224 30:-0.344284 31:-0.542703 32:-0.58716 33:0.391076 34:-0.107559 35:-0.580771 36:-0.52856 
-1024 1:-0.633202 2:-0.214389 3:-0.317212 4:0.431817 5:-0.806497 6:-0.198452 7:-0.347173 8:0.402668 9:-0.794023 10:-0.286954 11:-0.192956 12:0.0276438 13:-0.6895 14:-0.6554 15:-0.204912 16:0.0346052 17:-0.685779 18:-0.662246 19:0.645542 20:0.182869 21:0.55314 22:0.423543 23:-0.453292 24:0.24208 25:0.560976 26:0.348737 27:-0.406391 28:0.0906257 29:0.669701 30:-0.254562 31:-0.265923 32:-0.190115 33:0.700787 34:-0.2555 35:-0.263987 36:-0.212058 
1024 1:-0.849928 2:-0.923424 3:-0.782361 4:-0.0496674 5:-0.997357 6:-0.962505 7:-0.81675 8:0.0476593 9:-0.997759 10:-0.955354 11:-0.748851 12:0.399235 13:-0.997959 14:-0.972903 15:-0.763622 16:0.421216 17:-0.997984 18:-0.972746 19:-0.649123 20:-0.785148 21:-0.521739 22:0.0516868 23:-0.983468 24:-0.865507 25:-0.570732 26:0.275721 27:-0.987159 28:-0.840955 29:-0.448635 30:0.440697 31:-0.982071 32:-0.893651 33:-0.448819 34:0.455791 35:-0.982183 36:-0.892895 
-1024 1:-0.930035 2:-0.723073 3:-0.847795 4:-0.152729 5:-0.892333 6:-0.779432 7:-0.859699 8:-0.0223445 9:-0.919598 10:-0.786876 11:-0.80245 12:-0.0402249 13:-0.877035 14:-0.910217 15:-0.81581 16:-0.0296522 17:-0.873313 18:-0.913961 19:-0.811672 20:-0.598472 21:-0.608696 22:-0.244394 23:-0.772614 24:-0.700008 25:-0.62439 26:-0.0839153 27:-0.793031 28:-0.719865 29:-0.586476 30:-0.166474 31:-0.753565 32:-0.793675 33:-0.585302 34:-0.193751 35:-0.741129 36:-0.808211 
-1024 1:-0.799213 2:-0.345943 3:-0.590327 4:-0.0292521 5:-0.721682 6:-0.398868 7:-0.593414 8:-0.0286815 9:-0.701635 10:-0.42996 11:-0.545176 12:-0.245809 13:-0.604268 14:-0.694799 15:-0.553338 16:-0.406726 17:-0.553067 18:-0.735675 19:-0.0576441 20:-0.162567 21:-0.00966184 22:-0.15851 23:-0.464711 24:-0.283884 25:-0.0634146 26:-0.10534 27:-0.414978 28:-0.305025 29:0.107932 30:-0.573748 31:-0.387786 32:-0.555189 33:0.11811 34:-0.759996 35:-0.328666 36:-0.620695 
1024 1:-0.859656 2:-0.848717 3:-0.830725 4:0.194074 5:-0.998835 6:-0.859499 7:-0.733715 8:0.143678 9:-0.995951 10:-0.922908 11:-0.690658 12:0.539064 13:-0.996117 14:-0.941728 15:-0.702226 16:0.546098 17:-0.995729 18:-0.94253 19:-0.432152 20:-0.564127 21:-0.328502 22:0.52516 23:-0.970433 24:-0.558637 25:-0.32439 26:-0.110045 27:-0.810377 28:-0.765285 29:-0.227568 30:0.212773 31:-0.880693 32:-0.784013 33:-0.217848 34:0.241822 35:-0.882467 36:-0.782881 
-1024 1:-0.789692 2:-0.493937 3:-0.608819 4:0.277491 5:-0.88579 6:-0.466678 7:-0.636364 8:-0.0682297 9:-0.799883 10:-0.624352 11:-0.528331 12:-0.166882 13:-0.7684 14:-0.826156 15:-0.553338 16:-0.163751 17:-0.754938 18:-0.826033 19:-0.157179 20:-0.280163 21:-0.0628019 22:0.170553 23:-0.701191 24:-0.31696 25:-0.0707317 26:-0.016977 27:-0.615088 28:-0.471465 29:0.118336 30:-0.361137 31:-0.590955 32:-0.661913 33:0.12336 34:-0.303807 35:-0.588495 36:-0.648793 
1024 1:-0.863175 2:-0.927361 3:-0.836415 4:-0.00290073 5:-0.999492 6:-0.955808 7:-0.83393 8:0.0658112 9:-0.999378 10:-0.95852 11:-0.782542 12:0.422106 13:-0.999082 14:-0.972595 15:-0.794321 16:0.442159 17:-0.999096 18:-0.972753 19:-0.476549 20:-0.738838 21:-0.347826 22:0.187511 23:-0.987553 24:-0.834054 25:-0.334146 26:0.335381 27:-0.987127 28:-0.841169 29:-0.206762 30:0.563178 31:-0.983932 32:-0.873465 33:-0.2021 34:0.555344 35:-0.982727 36:-0.875125 
-318.0627316383145 1:-0.780998 2:-0.562573 3:-0.570413 4:0.19881 5:-0.935187 6:-0.672487 7:-0.614889 8:0.386287 9:-0.930818 10:-0.588391 11:-0.454824 12:0.292777 13:-0.907766 14:-0.842977 15:-0.470453 16:0.270011 17:-0.901584 18:-0.848953 19:0.0612245 20:-0.174694 21:0.0555556 22:-0.181632 23:-0.497916 24:-0.345714 25:0.0512195 26:0.484877 27:-0.690836 28:-0.171732 29:0.204161 30:-0.198361 31:-0.56622 32:-0.546863 33:0.230971 34:-0.277627 35:-0.540169 36:-0.575597 
1024 1:-0.843097 2:-0.916773 3:-0.840683 4:-0.0613315 5:-0.99506 6:-0.951967 7:-0.874016 8:0.0625601 9:-0.997134 10:-0.940235 11:-0.787136 12:0.331451 13:-0.994424 14:-0.971807 15:-0.80353 16:0.353178 17:-0.994363 18:-0.971767 19:-0.651271 20:-0.781092 21:-0.615942 22:-0.144846 23:-0.944227 24:-0.86917 25:-0.658537 26:0.143051 27:-0.961679 28:-0.829191 29:-0.581274 30:0.165351 31:-0.946848 32:-0.904523 33:-0.580052 34:0.186414 35:-0.946946 36:-0.904122 
1024 1:-0.855309 2:-0.873531 3:-0.806543 4:0.0323732 5:-0.993852 6:-0.913658 7:-0.779528 8:0.0751547 9:-0.992772 10:-0.928069 11:-0.707504 12:0.332152 13:-0.989386 14:-0.962446 15:-0.72218 16:0.359484 17:-0.989541 18:-0.961954 19:-0.464375 20:-0.674965 21:-0.408213 22:0.12567 23:-0.950724 24:-0.754517 25:-0.380488 26:0.0862934 27:-0.916133 28:-0.801449 29:-0.237971 30:0.1936 31:-0.92772 32:-0.868509 33:-0.217848 34:0.234622 35:-0.931359 36:-0.867434 
-1024 1:-0.793832 2:-0.68281 3:-0.624467 4:0.230969 5:-0.974081 6:-0.763428 7:-0.624911 8:0.344875 9:-0.977657 10:-0.769179 11:-0.50536 12:0.445323 13:-0.960529 14:-0.885587 15:-0.510361 16:0.475444 17:-0.961988 18:-0.886117 19:0.0454708 20:-0.365177 21:0.0217391 22:0.238699 23:-0.834527 24:-0.49746 25:0.0463415 26:0.347947 27:-0.826946 28:-0.519758 29:0.152146 30:0.179439 31:-0.786611 32:-0.655492 33:0.149606 34:0.168259 35:-0.777374 36:-0.657345 
-1024 1:-0.741668 2:-0.515429 3:-0.556188 4:-0.0459405 5:-0.849005 6:-0.650996 7:-0.549034 8:0.251697 9:-0.897427 10:-0.608054 11:-0.496172 12:-0.166011 13:-0.788459 14:-0.843956 15:-0.510361 16:0.156437 17:-0.837938 18:-0.80233 19:-0.0870032 20:-0.353064 21:-0.120773 22:0.0264544 23:-0.720542 24:-0.459408 25:-0.0390244 26:0.112855 27:-0.724665 28:-0.52083 29:0.0637191 30:-0.311701 31:-0.654342 32:-0.711708 33:0.0682415 34:-0.0773629 35:-0.695667 36:-0.665908 
-1024 1:-0.844339 2:-0.66934 3:-0.758179 4:0.0956385 5:-0.925869 6:-0.678945 7:-0.753758 8:-0.0313973 9:-0.900992 10:-0.770081 11:-0.713629 12:0.0308567 13:-0.875652 14:-0.882545 15:-0.728319 16:0.0362617 17:-0.871367 18:-0.88661 19:-0.597565 20:-0.52925 21:-0.480676 22:0.123545 23:-0.854331 24:-0.547259 25:-0.485366 26:-0.112704 27:-0.734045 28:-0.673881 29:-0.401821 30:-0.185406 31:-0.748154 32:-0.783563 33:-0.409449 34:-0.225512 35:-0.726773 36:-0.793236 
-1024 1:-0.810805 2:-0.588142 3:-0.669986 4:0.0839927 5:-0.914554 6:-0.681 7:-0.675018 8:0.332181 9:-0.933057 10:-0.616735 11:-0.584992 12:0.17822 13:-0.890778 14:-0.852988 15:-0.597851 16:0.214798 17:-0.892752 18:-0.852955 19:-0.210884 20:-0.260947 21:-0.0797101 22:-0.109781 23:-0.633953 24:-0.450843 25:-0.12439 26:0.357042 27:-0.703726 28:-0.283656 29:0.0143043 30:-0.26556 31:-0.590771 32:-0.61932 33:0.0131234 34:-0.131667 35:-0.617937 36:-0.5983 
534.1283467611977 1:-0.810805 2:-0.944974 3:-0.817923 4:-0.0739564 5:-0.998262 6:-0.9713 7:-0.813887 8:-0.00619489 9:-0.998364 10:-0.973141 11:-0.762634 12:0.349798 13:-0.998389 14:-0.98154 15:-0.775902 16:0.372998 17:-0.998477 18:-0.981703 19:-0.706409 20:-0.853813 21:-0.678744 22:0.043165 23:-0.997073 24:-0.902974 25:-0.643902 26:0.117848 27:-0.989481 28:-0.914531 29:-0.578674 30:0.421524 31:-0.993216 32:-0.92922 33:-0.577428 34:0.389049 35:-0.990597 36:-0.933092 
1024 1:-0.771062 2:-0.268087 3:-0.519203 4:0.153213 5:-0.725359 6:-0.241076 7:-0.534717 8:0.264728 9:-0.756316 10:-0.286252 11:-0.454824 12:-0.180148 13:-0.610564 14:-0.66466 15:-0.468918 16:-0.236004 17:-0.585122 18:-0.681886 19:-0.128536 20:0.0346485 21:0.0869565 22:0.103816 23:-0.388054 24:0.0594358 25:0.0756098 26:0.119982 27:-0.39557 28:-0.0804376 29:0.175553 30:-0.444279 31:-0.270138 32:-0.34405 33:0.170604 34:-0.407946 35:-0.254203 36:-0.329161 
-1024 1:-0.823432 2:-0.912253 3:-0.796586 4:-0.018763 5:-0.997352 6:-0.951622 7:-0.770938 8:0.0404832 9:-0.996692 10:-0.955997 11:-0.713629 12:0.390712 13:-0.996813 14:-0.971492 15:-0.725249 16:0.409686 17:-0.996823 18:-0.971935 19:-0.570354 20:-0.785901 21:-0.548309 22:0.0401898 23:-0.982146 24:-0.864047 25:-0.497561 26:0.126987 27:-0.970586 28:-0.874701 29:-0.430429 30:0.333528 31:-0.974197 32:-0.907834 33:-0.422572 34:0.317774 35:-0.972373 36:-0.91341 
1024 1:-0.844132 2:-0.76226 3:-0.733997 4:0.240485 5:-0.988848 6:-0.794004 7:-0.72083 8:0.261669 9:-0.985809 10:-0.826748 11:-0.591118 12:0.462783 13:-0.97883 14:-0.915445 15:-0.605526 16:0.486047 17:-0.979102 18:-0.915115 19:-0.456498 20:-0.502742 21:-0.350242 22:0.102648 23:-0.832215 24:-0.548483 25:-0.380488 26:0.0941604 27:-0.800867 28:-0.61918 29:-0.230169 30:-0.0903573 31:-0.786385 32:-0.779769 33:-0.228346 34:-0.0201458 35:-0.795262 36:-0.772211 
-1024 1:-0.825088 2:-0.510963 3:-0.668563 4:0.0811226 5:-0.86676 6:-0.573995 7:-0.679313 8:-0.0071266 9:-0.822777 10:-0.617007 11:-0.635528 12:0.0270688 13:-0.794854 14:-0.789379 15:-0.648503 16:-0.0660041 17:-0.770066 18:-0.811878 19:-0.379162 20:-0.308812 21:-0.198068 22:-0.170354 23:-0.634546 24:-0.493335 25:-0.209756 26:-0.152657 27:-0.560968 28:-0.508478 29:-0.159948 30:-0.150642 31:-0.601826 32:-0.578285 33:-0.152231 34:-0.310257 35:-0.551877 36:-0.627785 
1024 1:-0.833161 2:-0.658618 3:-0.72404 4:0.135869 5:-0.948286 6:-0.719096 7:-0.745168 8:0.0232432 9:-0.894397 10:-0.723376 11:-0.672282 12:0.19048 13:-0.904509 14:-0.866707 15:-0.694551 16:0.0454296 17:-0.869695 18:-0.880658 19:-0.0927318 20:-0.313354 21:-0.0700483 22:-0.149429 23:-0.657557 24:-0.511326 25:-0.0658537 26:0.257206 27:-0.716172 28:-0.39593 29:0.0689207 30:-0.0840653 31:-0.683157 32:-0.638806 33:0.0419948 34:-0.0270661 35:-0.678597 36:-0.618789 
-1024 1:-0.855309 2:-0.880842 3:-0.85064 4:0.00675614 5:-0.993594 6:-0.916604 7:-0.859699 8:0.065646 9:-0.991001 10:-0.914321 11:-0.81317 12:0.30245 13:-0.985687 14:-0.95694 15:-0.821949 16:0.363232 17:-0.988546 18:-0.955032 19:-0.663444 20:-0.743265 21:-0.63285 22:-0.153226 23:-0.922152 24:-0.837525 25:-0.643902 26:-0.0271719 27:-0.899929 28:-0.822379 29:-0.641092 30:0.0633703 31:-0.900111 32:-0.871755 33:-0.632546 34:0.00494826 35:-0.884803 36:-0.884392 
-1024 1:-0.768992 2:-0.397179 3:-0.54623 4:0.220248 5:-0.829686 6:-0.397035 7:-0.577666 8:-0.137626 9:-0.726103 10:-0.556604 11:-0.482389 12:-0.277186 13:-0.676424 14:-0.772723 15:-0.513431 16:-0.240096 17:-0.662176 18:-0.762541 19:-0.0834228 20:-0.247873 21:-0.00724638 22:0.129934 23:-0.667398 24:-0.306177 25:-0.0195122 26:-0.00145846 27:-0.599686 28:-0.442148 29:0.157347 30:-0.348609 31:-0.567923 32:-0.628352 33:0.154856 34:-0.283335 35:-0.566403 36:-0.61203 
-1024 1:-0.569033 2:-0.14653 3:-0.280228 4:0.263165 5:-0.698083 6:-0.120095 7:-0.28418 8:0.0705622 9:-0.599543 10:-0.19299 11:-0.111792 12:-0.626836 13:-0.469116 14:-0.68816 15:-0.112817 16:-0.340025 17:-0.527484 18:-0.646399 19:0.633369 20:0.0339445 21:0.42029 22:-0.044511 23:-0.38481 24:-0.101849 25:0.339024 26:0.234374 27:-0.358405 28:0.062126 29:0.76593 30:-0.969514 31:-0.245914 32:-0.572857 33:0.721785 34:-0.550261 35:-0.324761 36:-0.462534 
1024 1:-0.817015 2:-0.741117 3:-0.682788 4:0.31774 5:-0.988174 6:-0.757332 7:-0.6335 8:0.00454952 9:-0.962622 10:-0.884343 11:-0.551302 12:0.274202 13:-0.958939 14:-0.92394 15:-0.557943 16:0.325067 17:-0.961606 18:-0.922326 19:-0.0447547 20:-0.449202 22:0.550081 23:-0.920392 24:-0.451438 25:0.00243902 26:-0.151119 27:-0.77062 28:-0.743766 29:0.214564 30:-0.117716 31:-0.799016 32:-0.79697 33:0.254593 34:0.0326838 35:-0.824791 36:-0.78385 
1024 1:-0.851584 2:-0.882788 3:-0.786629 4:0.0914282 5:-0.998621 6:-0.919682 7:-0.786686 8:0.158024 9:-0.999023 10:-0.93118 11:-0.724349 12:0.534795 13:-0.998784 14:-0.953426 15:-0.735994 16:0.551895 17:-0.998798 18:-0.95362 19:-0.553169 20:-0.647791 21:-0.388889 22:0.360179 23:-0.978405 24:-0.693316 25:-0.382927 26:0.360649 27:-0.968516 28:-0.761435 29:-0.240572 30:0.549239 31:-0.967086 32:-0.824614 33:-0.228346 34:0.564336 35:-0.967359 36:-0.823939 
1024 1:-0.889257 2:-0.838973 3:-0.87909 4:0.0289706 5:-0.986286 6:-0.868345 7:-0.914102 8:0.26305 9:-0.99516 10:-0.806289 11:-0.781011 12:0.372449 13:-0.986325 14:-0.944129 15:-0.797391 16:0.35955 17:-0.984073 18:-0.947388 19:-0.79019 20:-0.672453 21:-0.722222 22:-0.467434 23:-0.658937 24:-0.750781 25:-0.758537 26:-0.026748 27:-0.765899 28:-0.626661 29:-0.664499 30:-0.497956 31:-0.677235 32:-0.882388 33:-0.671916 34:-0.530694 35:-0.646054 36:-0.889862 
-1024 1:-0.923411 2:-0.796579 3:-0.860597 4:-0.106244 5:-0.942354 6:-0.84072 7:-0.868289 8:-0.0148512 9:-0.955644 10:-0.85679 11:-0.814701 12:0.0882665 13:-0.934921 14:-0.935585 15:-0.831159 16:0.107137 17:-0.933032 18:-0.936634 19:-0.775868 20:-0.642333 21:-0.615942 22:-0.190338 23:-0.821411 24:-0.721377 25:-0.631707 26:-0.0521525 27:-0.836303 28:-0.752274 29:-0.56567 30:-0.0993592 31:-0.818731 32:-0.83535 33:-0.566929 34:-0.0928318 35:-0.815849 36:-0.841281 
-1024 1:-0.689298 2:-0.313716 3:-0.458037 4:0.189239 5:-0.779008 6:-0.331395 7:-0.448819 8:-0.00363764 9:-0.739635 10:-0.48581 11:-0.378254 12:-0.351717 13:-0.62566 14:-0.744673 15:-0.401381 16:-0.175494 17:-0.650632 18:-0.717363 19:0.314715 20:-0.113175 21:0.198068 22:0.248566 23:-0.611132 24:-0.136597 25:0.239024 26:-0.0391988 27:-0.503671 28:-0.360618 29:0.383615 30:-0.427333 31:-0.473551 32:-0.552128 33:0.370079 34:-0.239968 35:-0.498702 36:-0.500776 
-1024 1:-0.851377 2:-0.859211 3:-0.780939 4:0.101575 5:-0.996133 6:-0.898737 7:-0.770938 8:0.159029 9:-0.995441 10:-0.909589 11:-0.70291 12:0.495715 13:-0.994091 14:-0.942666 15:-0.714505 16:0.4972 17:-0.993447 18:-0.944427 19:-0.60401 20:-0.666221 21:-0.415459 22:0.242807 23:-0.968157 24:-0.728099 25:-0.417073 26:0.262386 27:-0.945268 28:-0.755136 29:-0.360208 30:0.458422 31:-0.943893 32:-0.794527 33:-0.370079 34:0.368206 35:-0.931435 36:-0.811748 
-1024 1:-0.766508 2:-0.427226 3:-0.578947 4:0.0847638 5:-0.837426 6:-0.525245 7:-0.56335 8:0.195993 9:-0.82976 10:-0.493869 11:-0.502297 12:0.0357606 13:-0.777853 14:-0.762552 15:-0.5165 16:-0.0626748 17:-0.744158 18:-0.77611 19:0.177945 20:-0.128889 21:0.200483 22:-0.162647 23:-0.525108 24:-0.367265 25:0.185366 26:0.253894 27:-0.584774 28:-0.224881 29:0.305592 30:-0.289261 31:-0.494488 32:-0.505736 33:0.251969 34:-0.0932932 35:-0.51496 36:-0.438644 
-1024 1:-0.843511 2:-0.455754 3:-0.630156 4:0.247462 5:-0.863522 6:-0.42935 7:-0.630637 8:-0.232171 9:-0.755068 10:-0.666385 11:-0.603369 12:-0.318734 13:-0.663333 14:-0.7878 15:-0.634689 16:-0.00638802 17:-0.723149 18:-0.735996 19:-0.458647 20:-0.318395 21:-0.236715 22:0.324129 23:-0.780519 24:-0.285349 25:-0.214634 26:-0.221082 27:-0.584112 28:-0.584223 29:-0.183355 30:-0.375271 31:-0.555514 32:-0.649543 33:-0.19685 34:-0.0477547 35:-0.625875 36:-0.567359 
-1024 1:-0.732561 2:-0.304086 3:-0.462304 4:0.0609521 5:-0.776618 6:-0.438682 7:-0.46743 8:0.253211 9:-0.781434 10:-0.362387 11:-0.434916 12:-0.0859498 13:-0.661146 14:-0.676942 15:-0.452034 16:-0.0386479 17:-0.66449 18:-0.6762 19:-0.0519155 20:-0.110811 21:0.113527 22:-0.103583 23:-0.542663 24:-0.338786 25:0.0439024 26:0.316105 27:-0.590409 28:-0.164551 29:0.172952 30:-0.316861 31:-0.467708 32:-0.495276 33:0.183727 34:-0.203937 35:-0.493733 36:-0.480694 
1024 1:-0.863382 2:-0.812409 3:-0.836415 4:0.193015 5:-0.990047 6:-0.793701 7:-0.740873 8:0.125467 9:-0.990038 10:-0.902921 11:-0.675345 12:0.400376 13:-0.984795 14:-0.939636 15:-0.693016 16:0.441593 17:-0.985701 18:-0.936989 19:-0.64053 20:-0.589896 21:-0.512077 22:0.376755 23:-0.941033 24:-0.51939 25:-0.534146 26:-0.319374 27:-0.721123 28:-0.794996 29:-0.464239 30:-0.247352 31:-0.770821 32:-0.838797 33:-0.454068 34:-0.0634046 35:-0.810661 36:-0.816963 
-1024 1:-0.756158 2:-0.251026 3:-0.429587 4:0.896963 5:-0.892409 6:0.0621207 7:-0.430208 8:-0.541671 9:-0.568348 10:-0.612476 11:-0.382848 12:-0.504509 13:-0.526891 14:-0.714313 15:-0.398312 16:-0.351997 17:-0.550243 18:-0.692584 19:-0.169352 20:-0.0329305 21:0.118357 22:0.831711 23:-0.732215 24:0.2427 25:0.168293 26:-0.754383 27:-0.133081 28:-0.52652 29:0.188557 30:-0.773682 31:-0.240619 32:-0.511424 33:0.215223 34:-0.56544 35:-0.30216 36:-0.477937 
1024 1:-0.869178 2:-0.800319 3:-0.807966 4:0.135618 5:-0.989516 6:-0.83898 7:-0.811024 8:0.137374 9:-0.979302 10:-0.847684 11:-0.722818 12:0.389461 13:-0.978339 14:-0.92568 15:-0.748273 16:0.365396 17:-0.973672 18:-0.927665 19:-0.361976 20:-0.518571 21:-0.297101 22:-0.126031 23:-0.805091 24:-0.676033 25:-0.302439 26:0.129508 27:-0.815545 28:-0.622756 29:-0.196359 30:0.0735601 31:-0.825902 32:-0.760787 33:-0.209974 34:0.0603018 35:-0.812359 36:-0.758487 
-1024 1:-0.58787 2:-0.123774 3:-0.248933 4:0.212537 5:-0.722295 6:-0.223008 7:-0.261274 8:0.603659 9:-0.77649 10:-0.0863111 11:-0.145482 12:-0.0643049 13:-0.584192 14:-0.570503 15:-0.157329 16:-0.182842 17:-0.554272 18:-0.608017 19:0.603294 20:0.195121 21:0.545894 22:0.0619229 23:-0.342551 24:0.0448326 25:0.480488 26:0.560134 27:-0.422716 28:0.285995 29:0.685306 30:-0.201915 31:-0.259568 32:-0.146051 33:0.706037 34:-0.450517 35:-0.184498 36:-0.246092 
-1024 1:-0.637549 2:-0.0217631 3:-0.3101 4:0.356582 5:-0.661003 6:0.0617328 7:-0.308518 8:-0.0115274 9:-0.541647 10:-0.164939 11:-0.223583 12:-0.268731 13:-0.441835 14:-0.512959 15:-0.234075 16:-0.288683 17:-0.426491 18:-0.528307 19:0.51092 20:0.220586 21:0.47343 22:0.334564 23:-0.390533 24:0.254658 25:0.536585 26:-0.033135 27:-0.22067 28:-0.0241812 29:0.604681 30:-0.346298 31:-0.184881 32:-0.153368 33:0.616798 34:-0.292119 35:-0.188532 36:-0.146726 
-1024 1:-0.824674 2:-0.718376 3:-0.664296 4:0.340261 5:-0.990772 6:-0.763816 7:-0.660702 8:0.374274 9:-0.98894 10:-0.796089 11:-0.508423 12:0.636991 13:-0.984117 14:-0.889698 15:-0.521105 16:0.648618 17:-0.984076 18:-0.89046 19:-0.172932 20:-0.312616 21:-0.13285 22:0.280762 23:-0.767755 24:-0.32201 25:-0.12439 26:0.293747 27:-0.748417 28:-0.41085 29:0.0741222 30:0.111999 31:-0.746635 32:-0.627983 33:0.0944882 34:0.149606 35:-0.752596 36:-0.629485 
933.7968475005306 1:-0.85386 2:-0.833442 3:-0.853485 4:0.199636 5:-0.996051 6:-0.820303 7:-0.752326 8:0.0940268 9:-0.990787 10:-0.916559 11:-0.695253 12:0.449509 13:-0.990181 14:-0.941263 15:-0.7099 16:0.467572 17:-0.990072 18:-0.941302 19:-0.672753 20:-0.613165 21:-0.586957 22:0.416891 23:-0.961773 24:-0.519769 25:-0.590244 26:-0.452316 27:-0.67307 28:-0.834347 29:-0.537061 30:-0.170956 31:-0.797339 32:-0.840252 33:-0.540682 34:-0.148701 35:-0.794319 36:-0.840268 
-1024 1:-0.919478 2:-0.90541 3:-0.88478 4:-0.0582533 5:-0.991403 6:-0.932037 7:-0.892627 8:-0.0123006 9:-0.990607 10:-0.940291 11:-0.843798 12:0.257097 13:-0.987503 14:-0.968672 15:-0.858787 16:0.28391 17:-0.987662 18:-0.968616 19:-0.782313 20:-0.786434 21:-0.690821 22:-0.1478 23:-0.9353 24:-0.85025 25:-0.697561 26:0.0737564 27:-0.958559 28:-0.856738 29:-0.664499 30:0.108742 31:-0.935214 32:-0.904925 33:-0.658793 34:0.160126 35:-0.941581 36:-0.903531 
1024 1:-0.853032 2:-0.771657 3:-0.785206 4:0.130986 5:-0.979625 6:-0.806832 7:-0.788117 8:0.120505 9:-0.970903 10:-0.835233 11:-0.701378 12:0.331138 13:-0.967591 14:-0.920729 15:-0.714505 16:0.342641 17:-0.966487 18:-0.921948 19:-0.456498 20:-0.534769 21:-0.415459 22:-0.00406963 23:-0.827605 24:-0.613726 25:-0.426829 26:-0.0450614 27:-0.771682 28:-0.674594 29:-0.323797 30:-0.043659 31:-0.802757 32:-0.78258 33:-0.312336 34:-0.113493 35:-0.782 36:-0.799383 
1024 1:-0.673774 2:-0.253243 3:-0.42532 4:0.204575 5:-0.731121 6:-0.221384 7:-0.445956 8:0.0625337 9:-0.659715 10:-0.292652 11:-0.267994 12:-0.627775 13:-0.543368 14:-0.763628 15:-0.283193 16:-0.373187 17:-0.591123 18:-0.730391 19:0.49087 20:-0.0286169 21:0.31401 22:-0.0724494 23:-0.406776 24:-0.150001 25:0.243902 26:0.271532 27:-0.425682 28:0.0128311 29:0.672302 30:-0.91154 31:-0.306477 32:-0.606233 33:0.629921 34:-0.515225 35:-0.381441 36:-0.508439 
1024 1:-0.865245 2:-0.908575 3:-0.820768 4:0.0438904 5:-0.999573 6:-0.94194 7:-0.821045 8:0.114419 9:-0.999386 10:-0.944759 11:-0.773354 12:0.491074 13:-0.999395 14:-0.962506 15:-0.785111 16:0.507909 17:-0.999443 18:-0.963216 19:-0.447905 20:-0.680568 21:-0.311594 22:0.312356 23:-0.986621 24:-0.77037 25:-0.304878 26:0.378538 27:-0.974587 28:-0.780165 29:-0.172952 30:0.638942 31:-0.976893 32:-0.825238 33:-0.146982 34:0.643698 35:-0.978293 36:-0.832474 
-1024 1:-0.852826 2:-0.846827 3:-0.842105 4:0.126023 5:-0.995467 6:-0.866635 7:-0.801002 8:0.144227 9:-0.993397 10:-0.900593 11:-0.727412 12:0.464187 13:-0.991939 14:-0.941098 15:-0.740599 16:0.473607 17:-0.991539 18:-0.94225 19:-0.62406 20:-0.644036 21:-0.548309 22:-0.0251581 23:-0.897489 24:-0.726132 25:-0.565854 26:-0.160639 27:-0.794836 28:-0.77476 29:-0.495449 30:0.117883 31:-0.882314 32:-0.823175 33:-0.490814 34:0.113529 35:-0.878928 36:-0.829517 
1024 1:-0.855723 2:-0.889335 3:-0.84495 4:-0.035433 5:-0.989994 6:-0.922739 7:-0.871152 8:0.150339 9:-0.99853 10:-0.914329 11:-0.816233 12:0.371849 13:-0.990807 14:-0.953047 15:-0.829624 16:0.393253 17:-0.990859 18:-0.953333 19:-0.535983 20:-0.671636 21:-0.478261 22:0.107422 23:-0.943698 24:-0.739295 25:-0.485366 26:0.266898 27:-0.946578 28:-0.745766 29:-0.407022 30:0.392068 31:-0.943419 32:-0.818621 33:-0.404199 34:0.383404 35:-0.939762 36:-0.82057 
1024 1:-0.859863 2:-0.612403 3:-0.678521 4:-0.0864222 5:-0.849407 6:-0.66986 7:-0.67645 8:-0.0960158 9:-0.830084 10:-0.691853 11:-0.574273 12:-0.0883595 13:-0.819663 14:-0.854679 15:-0.587107 16:-0.068579 17:-0.817487 18:-0.85775 19:-0.253849 20:-0.318346 21:-0.125604 22:-0.138385 23:-0.640491 24:-0.479179 25:-0.12439 26:-0.125578 27:-0.565978 28:-0.49415 29:-0.0195059 30:-0.160748 31:-0.636236 32:-0.620943 33:-0.0104987 34:-0.281915 35:-0.597607 36:-0.654604 
1024 1:-0.770441 2:-0.368152 3:-0.492176 4:0.152062 5:-0.782061 6:-0.365483 7:-0.497495 8:-0.0902207 9:-0.724481 10:-0.521588 11:-0.378254 12:-0.329261 13:-0.655245 14:-0.764239 15:-0.393707 16:-0.288896 17:-0.651784 18:-0.762429 19:0.0841389 20:-0.207717 21:0.0821256 22:0.112699 23:-0.639713 24:-0.288353 25:0.097561 26:-0.00939736 27:-0.576906 28:-0.423567 29:0.276983 30:-0.360645 31:-0.550949 32:-0.609859 33:0.288714 34:-0.292987 35:-0.55325 36:-0.596421 
1024 1:-0.892155 2:-0.554618 3:-0.682788 4:-0.181694 5:-0.71281 6:-0.515368 7:-0.670723 8:-0.277012 9:-0.697428 10:-0.617543 11:-0.554364 12:-0.457685 13:-0.661494 14:-0.830413 15:-0.567153 16:-0.405906 17:-0.662001 18:-0.829204 19:-0.340494 20:-0.289182 21:-0.0797101 22:0.027439 23:-0.610526 24:-0.30544 25:-0.0195122 26:-0.0379343 27:-0.561819 28:-0.423816 29:0.237971 30:-0.438256 31:-0.554537 32:-0.652968 33:0.246719 34:-0.367338 35:-0.556265 36:-0.63892 
-1024 1:-0.733182 2:-0.31608 3:-0.435277 4:0.667603 5:-0.877971 6:-0.132561 7:-0.404438 8:-0.427943 9:-0.655756 10:-0.645734 11:-0.353752 12:-0.27246 13:-0.642739 14:-0.729393 15:-0.364543 16:-0.290766 17:-0.632184 18:-0.742631 19:-0.0383101 20:-0.138921 21:0.0917874 22:0.758351 23:-0.800499 24:0.014913 25:0.187805 26:-0.698702 27:-0.301913 28:-0.621459 29:0.211964 30:-0.48978 31:-0.447714 32:-0.565644 33:0.209974 34:-0.593203 35:-0.405098 36:-0.598571 
1024 1:-0.764852 2:-0.423715 3:-0.507824 4:0.133568 5:-0.801576 6:-0.42035 7:-0.491768 8:-0.0670865 9:-0.77176 10:-0.583323 11:-0.355283 12:-0.0769452 13:-0.748824 14:-0.767322 15:-0.369148 16:-0.0657253 17:-0.744981 18:-0.772365 19:0.162191 20:-0.0714147 21:0.224638 22:0.502853 23:-0.67513 24:-0.00817194 25:0.309756 26:-0.0100152 27:-0.497261 28:-0.33161 29:0.409623 30:-0.0519092 31:-0.52917 32:-0.411513 33:0.406824 34:-0.190621 35:-0.48596 36:-0.455786 
-1024 1:-0.870834 2:-0.6176 3:-0.672831 4:-0.182771 5:-0.806584 6:-0.668074 7:-0.689334 8:-0.101533 9:-0.810002 10:-0.661721 11:-0.57121 12:-0.192805 13:-0.78193 14:-0.85034 15:-0.584037 16:-0.163374 17:-0.781137 18:-0.852802 19:-0.212317 20:-0.33523 21:-0.057971 22:0.071741 23:-0.72827 24:-0.440881 25:-0.0585366 26:0.148734 27:-0.69652 28:-0.453214 29:0.0741222 30:0.00597185 31:-0.693288 32:-0.606543 33:0.0813648 34:0.0400745 35:-0.693822 36:-0.603148 
-1024 1:-0.645622 2:-0.377024 3:-0.369844 4:0.0861958 5:-0.837819 6:-0.551455 7:-0.403006 8:0.0537452 9:-0.811557 10:-0.577119 11:-0.364472 12:0.176241 13:-0.771342 14:-0.697784 15:-0.375288 16:0.0852419 17:-0.749949 18:-0.720354 19:0.101325 20:-0.286227 21:0.0652174 22:0.207169 23:-0.776736 24:-0.424483 25:0.0292683 26:0.238735 27:-0.734428 28:-0.44684 29:0.0845254 30:0.157398 31:-0.697127 32:-0.530178 33:0.0761155 34:0.132526 35:-0.680665 36:-0.53319 
1024 1:-0.75326 2:-0.430599 3:-0.510669 4:-0.0801067 5:-0.803596 6:-0.595912 7:-0.530422 8:0.333192 9:-0.869912 10:-0.48572 11:-0.50536 12:-0.130508 13:-0.712558 14:-0.754533 15:-0.518035 16:0.144382 17:-0.759507 18:-0.708842 19:-0.250985 20:-0.319595 21:-0.161836 22:-0.129856 23:-0.653001 24:-0.486678 25:-0.129268 26:0.306822 27:-0.758603 28:-0.416251 29:-0.10013 30:-0.246804 31:-0.600461 32:-0.626593 33:-0.0682415 34:-0.117229 35:-0.631433 36:-0.609956 
1024 1:-0.785138 2:-0.363052 3:-0.477952 4:0.13926 5:-0.768816 6:-0.352012 7:-0.46743 8:-0.150584 9:-0.714888 10:-0.550064 11:-0.330781 12:-0.284458 13:-0.675941 14:-0.765091 15:-0.339985 16:-0.269757 17:-0.671924 18:-0.771106 19:-0.170784 20:-0.148757 21:0.0410628 22:0.230616 23:-0.62985 24:-0.16368 25:0.112195 26:-0.293933 27:-0.401061 28:-0.440841 29:0.250975 30:-0.544469 31:-0.450621 32:-0.59452 33:0.262467 34:-0.557706 35:-0.435744 36:-0.607221 
1024 1:-0.661768 2:-0.200981 3:-0.358464 4:0.350787 5:-0.738898 6:-0.107101 7:-0.351467 8:0.0650248 9:-0.669026 10:-0.315064 11:-0.19755 12:-0.0934748 13:-0.619137 14:-0.62466 15:-0.204912 16:-0.068005 17:-0.619219 18:-0.629838 19:0.472252 20:0.205733 21:0.461353 22:0.382988 23:-0.408929 24:0.27909 25:0.519512 26:-0.00264391 27:-0.223105 28:0.00123674 29:0.609883 30:-0.379642 31:-0.195834 32:-0.189159 33:0.606299 34:-0.354936 35:-0.184019 36:-0.185574 
-1024 1:-0.883875 2:-0.505004 3:-0.684211 4:-0.27265 5:-0.76036 6:-0.663965 7:-0.693629 8:-0.203295 9:-0.773534 10:-0.675066 11:-0.664625 12:-0.302399 13:-0.674441 14:-0.799198 15:-0.677667 16:-0.301131 17:-0.66687 18:-0.808995 19:-0.692087 20:-0.525156 21:-0.504831 22:-0.194822 23:-0.762851 24:-0.656597 25:-0.509756 26:-0.127317 27:-0.746787 28:-0.698546 29:-0.46684 30:-0.22623 31:-0.707761 32:-0.762454 33:-0.461942 34:-0.244364 35:-0.700783 36:-0.779084 
1024 1:-0.812047 2:-0.419601 3:-0.543385 4:0.0471644 5:-0.75947 6:-0.406192 7:-0.541875 8:-0.110639 9:-0.729581 10:-0.543281 11:-0.410413 12:-0.347202 13:-0.667178 14:-0.783993 15:-0.42287 16:-0.290175 17:-0.669546 18:-0.781494 19:-0.0769782 20:-0.21562 21:0.0603865 22:0.126364 23:-0.641586 24:-0.277384 25:0.0634146 26:-0.0114306 27:-0.569372 28:-0.41483 29:0.26658 30:-0.4079 31:-0.542158 32:-0.623679 33:0.270341 34:-0.320795 35:-0.54764 36:-0.605027 
1024 1:-0.860277 2:-0.531603 3:-0.651494 4:-0.204753 5:-0.749098 6:-0.593887 7:-0.652112 8:-0.158606 9:-0.736676 10:-0.587284 11:-0.529862 12:-0.290723 13:-0.713386 14:-0.815944 15:-0.537989 16:-0.297802 17:-0.703955 18:-0.824342 19:-0.143573 20:-0.188093 21:0.0724638 22:-0.217632 23:-0.503898 24:-0.382345 25:0.0439024 26:0.150394 27:-0.552344 28:-0.258847 29:0.256177 30:-0.394073 31:-0.49961 32:-0.569997 33:0.23622 34:-0.267278 35:-0.516055 36:-0.541634 
-678.1582484599255 1:-0.805009 2:-0.527897 3:-0.605974 4:0.254561 5:-0.906569 6:-0.543338 7:-0.604868 8:-0.344961 9:-0.769955 10:-0.754273 11:-0.589587 12:0.263075 13:-0.839678 14:-0.7516 15:-0.594781 16:-0.338844 17:-0.724412 18:-0.860633 19:-0.285356 20:-0.412607 21:-0.222222 22:0.144839 23:-0.819678 24:-0.512314 25:-0.178049 26:-0.513636 27:-0.551305 28:-0.736964 29:-0.196359 30:0.0852903 31:-0.742341 32:-0.635218 33:-0.167979 34:-0.50436 35:-0.607187 36:-0.77987 
-1024 1:-0.942248 2:-0.670908 3:-0.816501 4:-0.248007 5:-0.793384 6:-0.695597 7:-0.826772 8:-0.201504 9:-0.814536 10:-0.736341 11:-0.762634 12:-0.26091 13:-0.765523 14:-0.876706 15:-0.775902 16:-0.246525 17:-0.760359 18:-0.881629 19:-0.81382 20:-0.556696 21:-0.557971 22:-0.365987 23:-0.666824 24:-0.673246 25:-0.568293 26:-0.185009 27:-0.71398 28:-0.701982 29:-0.524057 30:-0.343217 31:-0.661393 32:-0.77757 33:-0.52231 34:-0.346079 35:-0.656109 36:-0.790766 
433.4725720251357 1:-0.751397 2:-0.192215 3:-0.394026 4:0.253759 5:-0.695089 6:-0.102297 7:-0.415891 8:0.282371 9:-0.697997 10:-0.173352 11:-0.309342 12:-0.186692 13:-0.535224 14:-0.57836 15:-0.321566 16:-0.192436 17:-0.522661 18:-0.587036 19:-0.000358038 20:0.0950603 21:0.205314 22:0.0826075 23:-0.328543 24:0.106953 25:0.217073 26:0.101855 27:-0.352334 28:-0.0502224 29:0.292588 30:-0.482606 31:-0.209195 32:-0.291074 33:0.291339 34:-0.455439 35:-0.190739 36:-0.28038 
-1024 1:-0.825709 2:-0.483372 3:-0.596017 4:-0.126286 5:-0.742164 6:-0.520454 7:-0.599141 8:-0.114538 9:-0.74119 10:-0.562953 11:-0.456355 12:-0.181179 13:-0.725239 14:-0.783903 15:-0.464313 16:-0.21256 17:-0.713781 18:-0.797972 19:0.0934479 20:-0.0942259 21:0.183575 22:0.0975827 23:-0.529081 24:-0.15152 25:0.207317 26:0.0790298 27:-0.476372 28:-0.22923 29:0.381014 30:0.012598 31:-0.528166 32:-0.371624 33:0.435696 34:-0.350349 35:-0.439411 36:-0.490713 
1024 1:-0.617057 2:-0.199415 3:-0.311522 4:0.836892 5:-0.878727 6:-0.00926173 7:-0.254116 8:-0.519019 9:-0.588669 10:-0.608876 11:-0.23124 12:-0.298763 13:-0.569789 14:-0.659803 15:-0.254029 16:-0.335785 17:-0.552291 18:-0.676853 19:0.056928 20:-0.134828 21:0.120773 22:0.849222 23:-0.820899 24:0.0499216 25:0.209756 26:-0.66232 27:-0.326948 28:-0.617829 29:0.256177 30:-0.471034 31:-0.45358 32:-0.559467 33:0.251969 34:-0.556629 35:-0.421542 36:-0.593031 
-1024 1:-0.886773 2:-0.733649 3:-0.748222 4:-0.169375 5:-0.906889 6:-0.822767 7:-0.753758 8:-0.115621 9:-0.898497 10:-0.814625 11:-0.690658 12:-0.0335708 13:-0.886675 14:-0.912144 15:-0.699156 16:-0.0248059 17:-0.884802 18:-0.916993 19:-0.377014 20:-0.545633 21:-0.258454 22:-0.182057 23:-0.815085 24:-0.725675 25:-0.290244 26:-0.00423887 27:-0.800507 28:-0.690926 29:-0.23277 30:-0.00507167 31:-0.80877 32:-0.771822 33:-0.212598 34:-0.1545 35:-0.774955 36:-0.804685 
1024 1:-0.699234 2:-0.301413 3:-0.342817 4:0.470561 5:-0.804924 6:-0.150888 7:-0.291339 8:-0.457526 9:-0.643088 10:-0.641109 11:-0.168453 12:-0.508795 13:-0.610137 14:-0.772487 15:-0.191097 16:-0.361296 17:-0.627621 18:-0.75433 19:0.255997 20:-0.110716 21:0.326087 22:0.858367 23:-0.796689 24:0.0693926 25:0.382927 26:-0.508973 27:-0.381113 28:-0.560785 29:0.573472 30:-0.769014 31:-0.427296 32:-0.658759 33:0.580052 34:-0.466004 35:-0.489186 36:-0.600711 
1024 1:-0.843718 2:-0.545741 3:-0.630156 4:-0.10972 5:-0.781277 6:-0.571126 7:-0.612026 8:-0.201326 9:-0.77408 10:-0.673776 11:-0.486983 12:-0.223099 13:-0.755617 14:-0.829821 15:-0.502686 16:-0.195938 17:-0.753698 18:-0.832538 19:-0.056212 20:-0.180833 21:0.0628019 22:0.311194 23:-0.667507 24:-0.152548 25:0.146341 26:-0.0414835 27:-0.533085 28:-0.39585 29:0.313394 30:-0.123915 31:-0.577674 32:-0.518144 33:0.312336 34:-0.201042 35:-0.552752 36:-0.546443 
1024 1:-0.733596 2:-0.340448 3:-0.450925 4:-0.104175 5:-0.690776 6:-0.423714 7:-0.464567 8:0.195848 9:-0.741243 10:-0.328898 11:-0.286371 12:-0.178913 13:-0.666128 14:-0.713934 15:-0.298542 16:-0.17255 17:-0.660662 18:-0.721302 19:0.302542 20:0.100275 21:0.335749 22:0.0636513 23:-0.37577 24:0.0148885 25:0.312195 26:0.495222 27:-0.441543 28:0.208634 29:0.555267 30:-0.261662 31:-0.330979 32:-0.280169 33:0.566929 34:-0.419878 35:-0.273258 36:-0.33526 
1024 1:-0.88284 2:-0.545616 3:-0.675676 4:-0.0865079 5:-0.764039 6:-0.516659 7:-0.660702 8:-0.235726 9:-0.732075 10:-0.636471 11:-0.546708 12:-0.336101 13:-0.709526 14:-0.829337 15:-0.557943 16:-0.293578 17:-0.711065 18:-0.830899 19:-0.366989 20:-0.282487 21:-0.144928 22:0.0833726 23:-0.630569 24:-0.277005 25:-0.0658537 26:-0.306176 27:-0.436232 28:-0.490186 29:0.107932 30:-0.49675 31:-0.526669 32:-0.658808 33:0.102362 34:-0.500353 35:-0.51038 36:-0.664315 
-1024 1:-0.724074 2:-0.464535 3:-0.486486 4:-0.0579106 5:-0.817587 6:-0.606552 7:-0.478883 8:0.196072 9:-0.860775 10:-0.572842 11:-0.399694 12:-0.126534 13:-0.775614 14:-0.81432 15:-0.4198 16:0.108031 17:-0.807313 18:-0.781397 19:0.0454708 20:-0.316906 21:-0.0289855 22:0.0264473 23:-0.70577 24:-0.445503 25:0.0658537 26:0.116842 27:-0.714061 28:-0.508687 29:0.170351 30:-0.308397 31:-0.64546 32:-0.696 33:0.170604 34:-0.0661908 35:-0.686657 36:-0.646871 
1024 1:-0.753881 2:-0.316617 3:-0.443812 4:0.139076 5:-0.734385 6:-0.287523 7:-0.430208 8:-0.0873727 9:-0.696384 10:-0.476095 11:-0.277182 12:-0.326597 13:-0.637997 14:-0.740637 15:-0.295472 16:-0.247968 17:-0.64208 18:-0.731668 19:0.0812746 20:-0.104238 21:0.18599 22:0.271454 23:-0.61058 24:-0.113286 25:0.207317 26:-0.0632167 27:-0.473946 28:-0.343443 29:0.362809 30:-0.476157 31:-0.447432 32:-0.549691 33:0.341207 34:-0.278043 35:-0.478433 36:-0.499162 
-1024 1:-0.921341 2:-0.589472 3:-0.768137 4:-0.266231 5:-0.775011 6:-0.682317 7:-0.780959 8:-0.132676 9:-0.814606 10:-0.687215 11:-0.735069 12:-0.309425 13:-0.71107 14:-0.844095 15:-0.749808 16:-0.315637 17:-0.697997 18:-0.851873 19:-0.779449 20:-0.543634 21:-0.545894 22:-0.319688 23:-0.704327 24:-0.678816 25:-0.553659 26:-0.172687 27:-0.725543 28:-0.705832 29:-0.513654 30:-0.280482 31:-0.687027 32:-0.771421 33:-0.511811 34:-0.291983 35:-0.681091 36:-0.787273 
1024 1:-0.804388 2:-0.383009 3:-0.533428 4:0.0661844 5:-0.722255 6:-0.317881 7:-0.514674 8:-0.18996 9:-0.672763 10:-0.513873 11:-0.36294 12:-0.391583 13:-0.63519 14:-0.767015 15:-0.376823 16:-0.302172 17:-0.645322 18:-0.760184 19:-0.00107411 20:-0.130899 21:0.125604 22:0.248382 23:-0.604277 24:-0.117697 25:0.165854 26:-0.0651996 27:-0.472578 28:-0.34269 29:0.347204 30:-0.481326 31:-0.460973 32:-0.567885 33:0.32021 34:-0.260014 35:-0.499328 36:-0.514549 
-1024 1:-0.699648 2:-0.235706 3:-0.358464 4:0.0457018 5:-0.658159 6:-0.23949 7:-0.358626 8:0.147663 9:-0.665737 10:-0.238917 11:-0.156202 12:-0.442178 13:-0.559684 14:-0.702453 15:-0.175748 16:-0.310069 17:-0.57082 18:-0.679859 19:0.310419 20:-0.00368502 21:0.326087 22:-0.0823313 23:-0.378896 24:-0.124536 25:0.280488 26:0.299307 27:-0.423742 28:0.0396054 29:0.656697 30:-0.925377 31:-0.274229 32:-0.584256 33:0.632546 34:-0.483228 35:-0.36465 36:-0.472608 
-1024 1:-0.820534 2:-0.46221 3:-0.59175 4:-0.209832 5:-0.696362 6:-0.516617 7:-0.58912 8:0.00149008 9:-0.768192 10:-0.521609 11:-0.454824 12:-0.327857 13:-0.688441 14:-0.800027 15:-0.461243 16:-0.365847 17:-0.674479 18:-0.815477 19:-0.0325815 20:-0.162413 21:0.031401 22:-0.121023 23:-0.462594 24:-0.25008 25:0.0097561 26:-0.099556 27:-0.409532 28:-0.294882 29:0.227568 30:-0.61524 31:-0.400669 32:-0.581037 33:0.230971 34:-0.798171 35:-0.335793 36:-0.635595 
1024 1:-0.557649 2:-0.141767 3:-0.192034 4:0.469747 5:-0.767384 6:-0.0911486 7:-0.208304 8:0.453165 9:-0.760488 10:-0.190862 11:-0.0382848 12:0.106851 13:-0.650979 14:-0.573057 15:-0.0560246 16:0.111532 17:-0.645926 18:-0.579 19:0.648407 20:0.225525 21:0.599034 22:0.447068 23:-0.435597 24:0.289371 25:0.609756 26:0.353084 27:-0.373443 28:0.138509 29:0.690507 30:-0.303284 31:-0.211327 32:-0.153574 33:0.716535 34:-0.307461 35:-0.205368 36:-0.17445 
-1024 1:-0.851584 2:-0.521885 3:-0.598862 4:-0.250185 5:-0.723016 6:-0.590165 7:-0.624911 8:-0.112542 9:-0.728615 10:-0.540341 11:-0.462481 12:-0.367655 13:-0.690643 14:-0.816071 15:-0.471988 16:-0.334334 17:-0.690622 18:-0.819626 19:-0.0898675 20:-0.152639 21:0.0797101 22:-0.204937 23:-0.42543 24:-0.280176 25:0.0829268 26:0.249145 27:-0.544967 28:-0.163334 29:0.331599 30:-0.397441 31:-0.469302 32:-0.534015 33:0.375328 34:-0.447921 35:-0.456922 36:-0.566005 
-1024 1:-0.821569 2:-0.434726 3:-0.556188 4:0.0496246 5:-0.770167 6:-0.422853 7:-0.549034 8:-0.175423 9:-0.726587 10:-0.584778 11:-0.41807 12:-0.301757 13:-0.694298 14:-0.793868 15:-0.427475 16:-0.268592 17:-0.694024 18:-0.796796 19:-0.173648 20:-0.186386 21:0.0217391 22:0.172076 23:-0.625072 24:-0.207868 25:0.0878049 26:-0.27493 27:-0.422428 28:-0.449144 29:0.245774 30:-0.519078 31:-0.478703 32:-0.611401 33:0.262467 34:-0.525818 35:-0.468875 36:-0.624638 
1024 1:-0.735458 2:-0.423809 3:-0.487909 4:0.0875727 5:-0.822126 6:-0.504893 7:-0.491768 8:0.157793 9:-0.825157 10:-0.523588 11:-0.359877 12:0.00653998 13:-0.774441 14:-0.766486 15:-0.370683 16:0.0294472 17:-0.77345 18:-0.769351 19:0.157895 20:-0.178573 21:0.181159 22:0.156775 23:-0.694183 24:-0.342272 25:0.187805 26:0.244267 27:-0.674101 28:-0.363436 29:0.250975 30:-0.0453388 31:-0.604406 32:-0.51131 33:0.251969 34:-0.0629975 35:-0.592634 36:-0.521909 
-1024 1:-0.871662 2:-0.569837 3:-0.662873 4:-0.232022 5:-0.763519 6:-0.637614 7:-0.67645 8:-0.0606702 9:-0.78909 10:-0.59785 11:-0.548239 12:-0.269357 13:-0.745318 14:-0.839373 15:-0.561013 16:-0.226057 17:-0.745911 18:-0.839334 19:-0.316864 20:-0.235798 21:-0.0410628 22:-0.2189 23:-0.524543 24:-0.404929 25:-0.107317 26:0.202611 27:-0.589667 28:-0.251456 29:0.13394 30:-0.411 31:-0.524093 32:-0.612231 33:0.11811 34:-0.322966 35:-0.53237 36:-0.596118 
-1024 1:-0.777893 2:-0.403039 3:-0.513514 4:0.0332299 5:-0.792491 6:-0.486527 7:-0.517538 8:0.186848 9:-0.805686 10:-0.458236 11:-0.393568 12:-0.0854594 13:-0.736064 14:-0.757672 15:-0.410591 16:-0.0425185 17:-0.736389 18:-0.755771 19:-0.0196921 20:-0.105339 21:0.140097 22:-0.138612 23:-0.514137 24:-0.332876 25:0.0780488 26:0.299753 27:-0.58057 28:-0.168485 29:0.227568 30:-0.354205 31:-0.462082 32:-0.507131 33:0.244094 34:-0.272172 35:-0.477403 36:-0.498572 
-948.487182945004 1:-0.487477 2:-0.0300301 3:-0.083926 4:0.513081 5:-0.741824 6:-0.00611977 7:-0.0909091 8:0.53357 9:-0.731352 10:-0.0722731 11:-0.0137825 12:-0.0159843 13:-0.527841 14:-0.479032 15:-0.0253262 16:-0.0211813 17:-0.521818 18:-0.492062 19:0.712854 20:0.225033 21:0.596618 22:0.36654 23:-0.401876 24:0.258296 25:0.619512 26:0.332313 27:-0.361696 28:0.13431 29:0.703511 30:-0.297289 31:-0.205476 32:-0.141741 33:0.737533 34:-0.294118 35:-0.206443 36:-0.165882 
-1024 1:-0.592838 2:-0.232027 3:-0.274538 4:0.193743 5:-0.757082 6:-0.308706 7:-0.281317 8:0.406223 9:-0.781001 10:-0.265359 11:-0.140888 12:-0.0118328 13:-0.674125 14:-0.652534 15:-0.14505 16:0.00747046 17:-0.675001 18:-0.659923 19:0.597565 20:0.109209 21:0.492754 22:0.0409691 23:-0.372806 24:-0.01184 25:0.507317 26:0.479086 27:-0.499647 28:0.0812455 29:0.620286 30:-0.309019 31:-0.323662 32:-0.298857 33:0.658793 34:-0.345718 35:-0.305499 36:-0.322575 
-1024 1:-0.753467 2:-0.334514 3:-0.467994 4:0.0764349 5:-0.772237 6:-0.416134 7:-0.470293 8:0.119064 9:-0.745937 10:-0.400726 11:-0.346095 12:-0.109818 13:-0.691704 14:-0.716833 15:-0.359939 16:-0.126703 17:-0.674803 18:-0.720615 19:0.168636 20:-0.0680744 21:0.270531 22:-0.158779 23:-0.479687 24:-0.311217 25:0.253659 26:0.230932 27:-0.533026 28:-0.176095 29:0.36801 30:-0.414406 31:-0.414289 32:-0.479047 33:0.322835 34:-0.138895 35:-0.458356 36:-0.392203 
-1024 1:-0.636307 2:-0.186722 3:-0.359886 4:0.0463199 5:-0.687414 6:-0.292899 7:-0.355762 8:0.023719 9:-0.658898 10:-0.330681 11:-0.295559 12:-0.165461 13:-0.567388 14:-0.602765 15:-0.304682 16:-0.323444 17:-0.524385 18:-0.6479 19:0.208736 20:-0.102335 21:0.128019 22:0.00361627 23:-0.516716 24:-0.214762 25:0.0804878 26:0.014678 27:-0.448997 28:-0.245178 29:0.263979 30:-0.443676 31:-0.411912 32:-0.498262 33:0.28084 34:-0.663446 35:-0.35061 36:-0.576447 
-1024 1:-0.565928 2:-0.11178 3:-0.219061 4:0.0905775 5:-0.688591 6:-0.268628 7:-0.226915 8:0.304745 9:-0.711833 10:-0.209543 11:-0.177642 12:-0.0458982 13:-0.558394 14:-0.532769 15:-0.191097 16:0.0171632 17:-0.562567 18:-0.524499 19:0.384891 20:0.0283156 21:0.362319 22:0.0881258 23:-0.516376 24:-0.155041 25:0.363415 26:0.357581 27:-0.534912 28:-0.0737603 29:0.438231 30:-0.150326 31:-0.413326 32:-0.317763 33:0.456693 34:-0.0654491 35:-0.427586 36:-0.302071 
1024 1:-0.545436 2:-0.131238 3:-0.170697 4:0.492145 5:-0.771501 6:-0.08359 7:-0.188261 8:0.483092 9:-0.763966 10:-0.176394 11:-0.0260337 12:0.109438 13:-0.643967 14:-0.563047 15:-0.0452801 16:0.113484 17:-0.640409 18:-0.571226 19:0.654851 20:0.223787 21:0.591787 22:0.428452 23:-0.427842 24:0.28294 25:0.607317 26:0.355728 27:-0.376328 28:0.137138 29:0.685306 30:-0.287656 31:-0.216828 32:-0.150008 33:0.711286 34:-0.297682 35:-0.212631 36:-0.176844 
1024 1:-0.619333 2:-0.196418 3:-0.29872 4:0.168769 5:-0.716459 6:-0.244742 7:-0.30136 8:0.462727 9:-0.757926 10:-0.160922 11:-0.128637 12:0.0272464 13:-0.650923 14:-0.608387 15:-0.13891 16:0.0102586 17:-0.643904 18:-0.622385 19:0.528822 20:0.193811 21:0.512077 22:0.11231 23:-0.35189 24:0.0825306 25:0.47561 26:0.595209 27:-0.436088 28:0.302382 29:0.661899 30:-0.226304 31:-0.261557 32:-0.165809 33:0.677165 34:-0.387592 35:-0.205994 36:-0.2309 
-1024 1:-0.650797 2:-0.200783 3:-0.345661 4:0.170354 5:-0.718908 6:-0.241928 7:-0.331424 8:0.0261507 9:-0.691512 10:-0.386697 11:-0.264931 12:-0.375992 13:-0.546915 14:-0.670983 15:-0.283193 16:-0.205146 17:-0.570677 18:-0.641014 19:0.251701 20:-0.102172 21:0.207729 22:0.229915 23:-0.595396 24:-0.130358 25:0.246341 26:-0.0583958 27:-0.48374 28:-0.351906 29:0.39922 30:-0.445801 31:-0.456261 32:-0.541777 33:0.380577 34:-0.239127 35:-0.486937 36:-0.485774 
1024 1:-0.733596 2:-0.340448 3:-0.450925 4:-0.104175 5:-0.690776 6:-0.423714 7:-0.464567 8:0.195848 9:-0.741243 10:-0.328898 11:-0.286371 12:-0.178913 13:-0.666128 14:-0.713934 15:-0.298542 16:-0.17255 17:-0.660662 18:-0.721302 19:0.302542 20:0.100275 21:0.335749 22:0.0636513 23:-0.37577 24:0.0148885 25:0.312195 26:0.495222 27:-0.441543 28:0.208634 29:0.555267 30:-0.261662 31:-0.330979 32:-0.280169 33:0.566929 34:-0.419878 35:-0.273258 36:-0.33526 
1024 1:-0.886359 2:-0.616551 3:-0.725462 4:0.0199441 5:-0.872705 6:-0.625289 7:-0.693629 8:-0.329062 9:-0.786241 10:-0.771958 11:-0.650842 12:-0.0680336 13:-0.816269 14:-0.848318 15:-0.651573 16:-0.274857 17:-0.770824 18:-0.884216 19:-0.440029 20:-0.449579 21:-0.28744 22:0.0701047 23:-0.804204 24:-0.535827 25:-0.214634 26:-0.543905 27:-0.52681 28:-0.73682 29:-0.224967 30:-0.0088209 31:-0.740235 32:-0.681893 33:-0.2021 34:-0.529789 35:-0.61468 36:-0.800293 
-1024 1:-0.620989 2:-0.258883 3:-0.324324 4:0.414578 5:-0.832666 6:-0.279222 7:-0.302792 8:-0.0843066 9:-0.730228 10:-0.532162 11:-0.277182 12:-0.19513 13:-0.637742 14:-0.690009 15:-0.298542 16:0.0996088 17:-0.686103 18:-0.635831 19:0.180809 20:-0.190178 21:0.123188 22:0.547537 23:-0.787532 24:-0.166276 25:0.17561 26:-0.155919 27:-0.571996 28:-0.524241 29:0.222367 30:-0.314114 31:-0.54708 32:-0.584272 33:0.212598 34:-0.0279889 35:-0.60058 36:-0.5132 
-1024 1:-0.831505 2:-0.4611 3:-0.600284 4:-0.0786196 5:-0.767089 6:-0.523105 7:-0.604868 8:0.0278886 9:-0.773939 10:-0.509822 11:-0.476263 12:-0.186227 13:-0.723236 14:-0.784818 15:-0.490407 16:-0.130089 17:-0.727902 18:-0.783387 19:-0.166488 20:-0.0786544 21:0.0821256 22:0.0284378 23:-0.52138 24:-0.195536 25:0.1 26:0.207439 27:-0.509031 28:-0.152393 29:0.240572 30:-0.306773 31:-0.438167 32:-0.451169 33:0.223097 34:-0.225376 35:-0.446795 36:-0.434869 
-1024 1:-0.867729 2:-0.6042 3:-0.694168 4:-0.0832767 5:-0.842237 6:-0.65268 7:-0.677881 8:-0.128157 9:-0.835806 10:-0.721827 11:-0.611026 12:-0.147832 13:-0.804038 14:-0.859795 15:-0.623945 16:-0.13241 17:-0.801187 18:-0.864318 19:-0.392052 20:-0.462468 21:-0.31401 22:0.0660032 23:-0.808742 24:-0.542967 25:-0.307317 26:-0.17457 27:-0.682473 28:-0.659195 29:-0.196359 30:-0.243027 31:-0.716455 32:-0.762513 33:-0.204724 34:-0.289839 35:-0.694339 36:-0.774313 
-1024 1:-0.909336 2:-0.546949 3:-0.709815 4:0.0900696 5:-0.799141 6:-0.408494 7:-0.697924 8:-0.219504 9:-0.736752 10:-0.632573 11:-0.62634 12:-0.267564 13:-0.689833 14:-0.795012 15:-0.645434 16:-0.168311 17:-0.701312 18:-0.783384 19:-0.626924 20:-0.323358 21:-0.270531 22:0.23345 23:-0.697735 24:-0.218213 25:-0.209756 26:-0.347947 27:-0.454659 28:-0.544842 29:-0.152146 30:-0.536441 31:-0.453223 32:-0.626268 33:-0.173228 34:-0.258802 35:-0.518258 36:-0.561857 
